435 400
plane 0.105363 0.030361 -0.059048 0.116388 0.162036 -0.095872 -0.055545 0.192488 0.199813 -0.217183 -0.134345 0.440787 -0.005368 -0.066788 0.211445 0.26089 0.101174 0.2734 0.136844 -0.002728 0.128408 -0.093997 -0.150056 -0.058721 0.002039 0.014588 -0.080286 0.216901 0.065956 0.045323 -0.096091 -0.07798 0.049178 0.249548 0.072616 0.001866 0.087519 0.005364 0.1239 -0.051835 -0.071953 0.076252 0.042408 -0.130472 0.124229 0.169323 0.084218 -0.36663 0.035379 0.131199 -0.045681 0.425578 -0.056083 0.325088 0.117088 0.127803 0.274785 0.006254 -0.240865 0.016139 0.049891 0.004225 0.038328 0.023335 -0.154578 0.064078 0.488057 0.231002 0.173878 0.091902 0.285897 0.016057 0.384683 0.006004 -0.144366 0.108589 -0.207399 -0.00303 -0.17283 -0.091954 0.20848 0.186143 -0.149834 -0.146836 0.176153 -0.012813 -0.199984 0.107177 -0.144301 -0.080983 -0.177276 -0.059009 -0.232688 -0.253611 0.125293 -0.010929 0.304247 0.094023 -0.00555 -0.433669 -0.232326 -0.108489 -0.133686 -0.132926 0.31372 -0.218917 -0.185761 -0.103281 0.147128 0.248865 0.030169 -0.21221 0.253565 0.132938 0.006103 -0.179597 0.108363 -0.1464 0.149825 -0.13612 0.140567 0.004297 -0.24685 -0.256144 0.199851 -0.342402 0.01958 -0.112035 -0.051871 0.018595 -0.116062 -0.171505 -0.10933 -0.168784 0.010267 0.212962 -0.007782 -0.102905 -0.225593 -0.177338 0.099541 -0.019903 0.091419 0.111198 -0.150309 -0.116792 0.152867 0.331041 -0.015048 0.117331 -0.041663 0.234125 -0.423556 -0.308506 0.291862 0.278664 -0.087249 0.08082 0.029607 -0.421036 0.421249 -0.103996 0.052287 0.13268 -0.020399 -0.051151 0.050891 -0.115693 -0.1167 -0.101528 -0.118249 0.084553 0.051235 0.039024 0.052491 0.205929 -0.087982 0.032367 -0.043149 0.189183 -0.15433 -0.087784 0.086598 -0.067892 -0.006162 -0.00892 -0.268107 0.115754 -0.06692 -0.077183 0.123056 -0.103832 -0.185285 -0.036831 0.127392 -0.251852 0.082197 -0.038676 -0.07711 -0.054903 0.038323 -0.221801 0.114788 -0.119299 -0.048092 -0.009664 -0.022806 -0.143226 0.257502 -0.22702 0.139038 0.052368 -0.052489 0.161737 0.215288 0.121998 0.121673 -0.045257 -0.039949 0.101254 0.077961 -0.099025 -0.263665 0.043785 0.158766 -0.147146 -0.161346 0.058401 -0.405312 -0.150842 -0.220585 0.110747 -3.82E-4 -0.162452 0.086245 -0.134895 0.009192 -0.013956 0.108799 0.049862 -0.034083 -0.035853 -0.079693 0.208826 0.371972 0.068709 0.050769 0.034341 -0.019464 -0.113136 -0.066397 0.196293 -0.198452 -0.032638 0.011778 0.117221 0.030781 0.226019 0.167898 -0.401587 0.115985 0.214996 0.27571 -0.140479 0.217186 -0.055665 -0.001912 -0.010379 0.033144 0.222405 -0.007119 0.090727 0.024961 -0.032335 0.025406 -0.0301 0.052905 0.224145 0.1802 0.130358 -0.18534 0.071069 0.045063 -0.196788 -0.059344 0.038057 0.120436 -0.107982 0.062677 0.125668 0.152924 -0.098227 -0.152923 -0.262733 0.322098 0.072607 0.073416 0.151661 0.107976 -0.123426 0.003754 -0.013068 0.056937 0.138523 0.187664 0.03759 0.211195 -0.072467 -0.046803 0.150366 0.273448 0.209508 0.119015 0.020935 -0.104261 0.015308 -0.070766 -0.01918 -0.090647 0.220522 0.223745 -0.178052 0.092461 -0.074488 -0.126397 -0.223991 -0.23282 -0.031888 0.097997 -0.052586 0.192962 -0.189612 0.367068 0.156723 0.032173 -0.152902 0.180116 -0.160464 -3.76E-4 -0.056514 0.299461 -0.191679 0.241729 0.279707 0.099351 -0.129667 0.248217 0.119032 -0.318732 -0.039843 0.162462 -0.024427 0.021047 0.174745 -0.001036 -0.191234 0.212942 0.079135 0.105452 0.138135 0.015519 0.251848 0.188933 0.059906 -0.021974 0.194434 0.144785 0.166441 -0.062423 -0.198395 0.195884 -0.104585 0.093484 -0.202402 0.13974 -0.091907 0.056101 -0.231994 -0.260801 0.335092 -0.216435 0.167553 -0.367458 0.069091 -0.237917 0.127232 -0.155142 0.192441 -0.12957 -0.034028 -0.044556 -0.007854 0.121845 -0.089079 0.006765 0.092339 0.176807 -0.011845 -0.100099 -0.255249
stupid -0.041163 -0.044226 0.142791 -0.008376 -0.113424 -0.001246 -0.081755 0.019857 0.078678 -0.084655 -0.127527 0.179726 -0.152151 0.080769 0.020456 0.07196 0.211174 -0.129354 -0.016308 -0.12001 0.043368 -0.034488 -0.173151 -0.01684 0.312949 -0.043397 0.109201 -0.036542 0.148241 -0.06763 0.212552 -0.061602 -0.077369 -0.055773 0.070493 0.133424 0.08722 -0.027331 0.003812 0.239145 -0.203535 0.1355 0.091441 0.125962 -0.156141 0.016042 -0.005252 0.047908 0.139309 0.275406 -0.347493 0.314889 -0.056549 -0.059582 -0.071835 -0.052172 -0.019122 -0.0048 -0.159108 0.195143 0.016167 -0.161236 -0.025921 -0.173988 0.12895 0.010914 -0.250401 -0.03931 0.082939 -0.242133 -0.079785 -0.339004 -0.244226 0.05039 0.020506 0.088987 0.092334 0.100438 0.023277 -0.323951 -0.053694 -0.157381 -0.039854 0.158796 0.126216 0.030665 -0.142588 0.230442 -0.10155 0.102493 0.252561 0.055892 -0.049449 -0.309689 -0.093525 0.087581 -0.371746 -0.007339 -0.2397 0.132366 0.10137 0.081657 -0.05375 -0.140419 -0.040936 -0.033745 0.233945 -0.250754 -0.066155 0.1189 -0.187391 0.02927 -0.009037 0.184117 -0.012746 -0.022918 -0.10816 -0.111559 0.10842 0.086774 -0.086813 -0.06575 -0.029515 0.138545 -0.084792 -0.162172 0.035249 0.049589 0.105848 -0.202373 -0.007133 0.039204 0.095412 -0.187479 0.0783 0.165021 0.106402 0.121719 0.222182 0.055716 0.06276 0.147704 0.126053 -0.097121 0.002117 -0.279627 0.051185 -0.040119 0.115728 -0.055179 -0.068942 0.166442 -0.110059 0.225064 -0.050154 0.17121 -0.173238 -0.052392 -0.088842 -0.11157 0.039092 -0.038354 0.034658 -0.07473 0.060259 -0.010462 0.052053 -0.180545 0.043319 -0.086921 0.010064 -0.062096 -0.044786 -0.220064 0.136677 -0.002254 0.071142 -0.014038 0.062668 -0.060782 0.056905 0.162585 -0.038751 -0.109811 0.025094 -0.039664 -0.026087 0.216406 -0.079221 -0.339675 0.125498 0.024775 -0.056794 -0.112094 0.0262 0.005577 0.057694 -0.098652 -0.092008 0.130299 -0.150991 0.016752 -0.070234 0.130715 -0.201578 -0.007144 0.050407 0.318282 0.192094 -0.121968 -0.195923 0.040132 -0.011115 0.027689 0.014813 -0.039009 -0.048556 0.278453 0.073209 -0.105019 0.023071 0.173766 0.069947 0.284361 0.027878 -0.291516 -0.01367 -0.096144 -0.075994 0.021843 -0.065588 -0.199514 0.163492 0.164447 0.168347 -0.055783 -0.122035 -0.153895 0.127727 -0.175088 -0.312625 -0.191897 0.119242 0.12729 -0.398162 -0.118199 -0.007403 -0.327255 0.080323 0.128343 -0.167067 -0.007804 -0.145859 -0.168303 0.079086 -0.165877 -0.025096 -0.188556 -0.093396 0.025523 0.019689 0.03206 -0.083249 0.270885 0.162114 -0.012929 -0.055525 0.139005 0.095679 -0.01304 -0.245059 0.05167 0.164896 -0.153119 0.20119 -0.074693 0.181821 -0.04195 0.003782 -0.113713 0.182453 0.090724 0.056776 -0.02924 0.121536 0.192596 -0.031128 -0.017627 0.101491 0.072077 0.0953 -0.027273 0.149809 -0.066498 0.051927 -0.093601 -0.010526 -0.057224 -0.007082 -0.098536 -0.219938 -0.075177 -0.112201 0.086084 -0.344141 0.057193 0.035479 0.131058 0.049308 0.307576 0.152809 -0.102168 -0.061899 0.120086 -0.108943 -0.079434 -0.002721 0.108629 -0.122283 0.217141 -0.263093 0.328843 0.137357 0.005228 0.045699 0.041459 0.15129 -0.066167 0.061467 -0.040205 -0.006473 0.199912 -0.307189 -0.10379 -0.128263 0.068009 0.151158 0.186459 0.043094 -0.085244 -0.031499 -0.034436 0.233564 0.117703 0.051833 -0.088108 0.243582 0.105824 0.004478 0.026834 -0.133759 -0.12476 0.177092 -0.364306 -0.202379 -0.147105 -0.178353 -0.017124 0.24008 -0.02349 -0.00252 0.160732 0.087477 -0.148684 -0.091766 0.268742 0.131615 -0.017799 -0.006563 0.197754 0.056032 -0.077069 -0.106683 0.262699 -0.080346 0.17991 -9.99E-4 0.038043 -0.015816 -0.112053 -0.043283 -0.203038 -0.10773 0.045257 -0.029632 0.085403 -0.176621 0.123056 0.066543 -0.141546 0.226607 -0.134452 0.261522 -0.007902 -0.124809 0.046269 0.258548 -0.179451 -0.042775 0.031889
egg -0.052421 0.405165 -0.221153 -0.162236 0.082662 -0.043669 -0.004687 0.442981 0.046401 0.0889 0.253851 -9.08E-4 -0.249662 0.163825 -0.068429 0.011429 -0.013706 -0.117956 -0.144655 -0.196475 0.160202 0.1112 0.171008 -0.247356 -0.244945 -0.147977 0.342476 0.140014 0.183769 0.32611 -0.149392 -0.044272 0.236783 0.446249 0.057429 -0.014483 -0.111791 -0.223249 0.177822 0.09143 -0.47508 0.223127 0.082723 -0.152585 -0.06778 0.07181 0.034113 -0.083215 -0.037769 -0.027766 0.099108 0.10255 -0.144125 0.294695 -0.07598 -0.154937 0.089872 -0.01972 0.038412 -0.271126 0.165549 0.293923 -0.065101 -0.478776 -0.102029 0.157149 0.149763 -0.151662 0.202289 0.105632 0.007532 0.188382 0.174064 0.0743 -0.266956 0.345919 0.184148 0.035581 0.024264 -0.053955 -0.029241 0.245865 0.009773 0.031278 -0.082379 -0.171982 -0.197749 0.074254 0.022085 0.01716 -0.160709 0.160569 0.21313 0.035727 -0.13412 -0.122582 -0.115997 -0.293514 -0.114452 -0.059506 -0.069138 -0.20995 -0.133006 -0.187591 0.058584 0.19578 -0.293551 -0.182501 -0.26649 -0.312857 0.25009 0.020591 -0.041244 -0.03903 -0.259959 0.09805 -0.031134 -0.00811 -0.016692 0.142484 0.10865 0.108645 0.183916 -0.220038 -0.030889 -0.09251 0.388504 -0.136969 0.139777 0.083385 0.287275 -0.093574 0.190304 -0.202112 0.472711 -0.095904 -0.228544 0.201711 0.213854 0.266278 0.008285 -0.160161 -0.012881 -0.179054 0.026891 0.248423 -0.017767 -0.10122 -0.144843 -0.061219 0.356022 -0.258226 -0.382873 -0.173185 0.199006 0.067661 0.280214 0.099516 -0.312551 -0.103421 -0.079034 0.274088 -0.058606 0.166634 0.002568 -0.22494 0.226354 0.003809 -0.050491 -0.050969 0.020343 0.090583 -0.086181 0.056215 -0.03961 0.002107 0.04729 0.036141 0.052808 -0.20449 0.137517 -0.250648 0.038765 -0.245623 -0.079541 0.048183 0.192753 -0.230265 -0.129085 -0.305415 0.075054 0.03855 -0.104869 -0.092735 -0.046468 0.183867 0.042669 -0.08182 0.244663 -0.307221 -0.06916 -0.133417 -0.09316 -0.089503 0.156809 0.134424 0.245267 -0.177646 0.240825 -0.107239 -0.027988 0.012 0.285596 0.135004 -0.223414 0.058655 0.12471 -0.204788 0.042992 -7.0E-6 0.118639 -0.063137 -0.181994 -0.076692 0.167278 0.152635 0.19507 -0.126268 0.30168 0.153498 -0.144116 -0.132873 -0.092681 -0.119653 0.252925 0.301946 -0.327795 -0.232323 0.179316 0.015232 0.285266 0.11304 -0.223194 -0.084391 -0.068052 -0.154128 0.044202 0.169679 -0.203559 -0.056043 -0.126475 -0.142315 0.193316 -0.320931 0.306565 -0.165531 0.019926 0.017323 -0.228164 0.384844 0.306504 0.232661 0.037477 0.148802 -0.15762 0.209785 0.233198 -0.250911 -0.103758 -0.278319 -0.009604 -0.137602 0.100588 0.361994 0.133911 -0.205153 0.049347 -0.157271 -0.13503 0.360611 -0.032133 0.114553 0.023156 0.364493 0.400705 0.299991 0.10893 0.32544 -0.061829 0.146389 -0.226918 0.037182 0.052904 0.088366 0.190539 -0.194558 -0.059893 -0.05339 0.08428 0.007548 -0.136268 -0.041533 0.06011 0.050385 -0.226315 -0.027733 0.158439 -0.125799 -0.075393 0.039442 -0.23812 -0.004732 -0.086291 -0.162509 0.220933 0.466157 0.00673 0.03234 0.050379 -0.164245 -0.049877 0.014661 0.05597 -0.247294 -0.338251 0.060031 0.084276 0.124983 0.139434 -0.096991 -0.129227 0.009752 0.118216 0.11547 0.085971 0.061587 -0.407167 -0.370505 0.173111 0.009773 0.195308 -0.132542 0.388226 0.008268 0.122365 -0.265089 0.319214 0.280605 -0.104214 0.106912 -0.151076 -0.459483 0.024672 -0.045833 -0.273971 0.004914 -0.0924 -0.236798 0.025012 -0.067811 -0.164335 0.110966 0.040949 -0.182743 -0.312797 -0.049158 0.0325 0.11285 0.281358 -0.021894 0.036707 0.219708 -0.090454 0.052615 0.095121 0.136385 -0.39133 0.013572 0.176512 0.005242 -0.017714 -0.064678 -0.157775 -0.223476 0.115931 0.17844 0.24708 0.005294 -0.068912 0.197637 -0.010496 0.26137 0.32161 0.111563 0.025612 0.285107 -0.002771 0.087987 -0.20468 -0.214184
year -0.116152 0.018104 -0.033384 -0.201151 0.052057 0.234606 -0.062348 6.91E-4 0.130474 0.047493 0.038639 0.076067 -0.057966 -0.088599 -0.123801 0.121405 -0.138408 0.035398 -0.059669 0.042662 -0.080264 0.131038 0.118833 -0.192886 -0.035361 -0.114175 0.098647 -0.029583 -0.006519 -0.143665 -0.099785 -0.021452 -0.121204 -0.099768 -0.07005 -0.103731 0.014808 -0.00216 -0.018027 0.062361 0.07897 0.034151 -0.192589 -0.076969 0.086916 -0.074129 -0.030679 -0.071229 -0.118194 0.022997 0.013284 -0.05691 -0.008088 0.053568 -0.060503 -0.198839 -0.094618 0.063649 0.119915 0.014519 0.001585 -0.21739 0.045149 -0.098923 0.114651 0.054155 -0.116146 0.037078 -0.115061 0.02339 0.105035 -0.00421 0.009655 -0.168243 -0.075409 0.080671 -0.099638 -0.127344 0.022244 -0.10534 -0.220899 -0.143013 0.032078 0.099259 0.009485 -0.128515 0.098484 0.082147 0.006491 0.078905 0.020112 0.017978 -0.017969 0.232103 -0.104413 0.278577 -0.005696 -0.045247 -0.055838 -0.013146 0.019601 0.111991 -0.037137 -0.074663 0.267982 -0.204625 0.159259 0.150557 0.074808 -0.114636 -0.120119 0.093195 0.122598 0.06234 -0.155183 -0.190955 -0.009115 0.008967 0.089846 -0.036228 -0.047184 0.089076 -0.023465 0.201987 0.016816 0.040945 0.037415 -0.106445 0.136306 0.003393 -0.004306 0.103562 0.082011 0.096869 0.059904 0.01239 -0.040658 0.088569 0.148753 -0.323274 -0.114034 0.134685 -0.124697 0.001303 0.101408 0.233578 0.08229 0.035584 0.008245 -0.048378 0.081019 0.141915 -0.186558 0.022008 -0.067016 -0.081011 0.027136 0.056361 0.128304 -0.055987 -0.240906 0.066552 -0.051543 0.005511 0.154884 -0.034283 0.07078 0.057958 -0.015086 0.066684 -0.134362 -0.077693 0.024385 -0.032499 0.012793 -0.075437 -0.253913 0.015287 -0.113026 0.005938 0.145079 -0.098544 -0.031658 0.14869 -0.062295 0.051256 -0.024829 0.01356 -0.065704 -0.030209 0.057315 -0.011087 0.056335 -0.054901 -0.148749 -0.072661 -0.10313 -0.060772 0.058205 0.008457 -0.040584 0.096172 0.058919 0.079568 0.019498 -0.161526 0.044802 -0.048711 -0.019484 -0.039595 -0.093349 -0.067249 -0.022967 -0.008981 -0.073487 -0.204216 0.043203 0.028563 -0.116615 0.092145 0.079748 -0.047199 0.149671 0.130613 0.081437 0.011486 -0.052562 0.041195 0.016432 -0.017197 -0.055574 -0.008143 -0.00179 0.130943 0.176197 -0.042328 -0.012995 -0.043808 -0.064965 -0.046434 -0.013959 -0.032962 -0.059422 -0.149553 0.07826 0.010462 0.051937 0.004238 -0.143677 0.101984 0.037897 0.035265 0.206481 -0.013292 -0.056142 0.026397 0.095672 0.037183 0.107864 0.152653 -0.100987 0.155785 0.086765 -0.046613 0.121165 -0.084553 -0.066582 -0.008771 -0.110076 -0.018685 -0.154079 -0.138937 -0.107537 -0.145946 0.224807 -0.24308 0.031398 0.006145 0.056763 0.217794 -0.061499 -0.037866 -0.230797 -0.169875 0.021999 -0.132251 -0.011888 -0.112869 0.13335 0.034022 0.085464 -0.121729 -0.017662 -0.017303 0.032746 0.177785 -0.10965 0.057544 -0.08162 -0.022568 0.04629 -0.050591 -0.122399 -0.030392 0.069702 -0.148729 0.027209 -0.067942 -0.066427 0.085558 0.195762 -0.01674 0.070289 -0.003657 0.113408 0.124519 0.005255 0.107969 0.045658 -0.037961 0.008694 -0.021318 -0.010933 -0.192745 0.008705 0.06112 0.041585 0.009315 0.022693 -0.055301 0.011873 0.060979 0.156325 -0.130125 -0.041017 0.136999 -0.113256 0.047622 0.001077 0.181172 -0.061884 -0.134437 0.011632 0.131511 -0.185389 -0.005867 0.11468 -0.21422 -0.166095 0.068842 0.017651 0.071254 -0.036611 -0.059894 -0.036253 0.157339 -0.088503 0.100067 0.016207 -0.102748 0.001649 -0.128343 -0.009833 -0.109423 0.102786 -0.125769 -0.01289 -0.034009 0.015523 -0.157804 0.028125 0.024942 0.019818 -0.155196 0.085185 -0.001146 -0.064333 0.086287 -0.20599 0.107698 -0.055599 0.082243 0.147798 -0.069973 -0.059711 0.132561 -0.017423 0.196429 0.106068 0.025433 -0.07781 -0.130016 -0.082291 0.082942 0.049449 0.128654 -0.091582 -0.045359 0.077056 0.228287
psychiatry -0.222014 -0.185829 0.195724 -0.107523 0.218061 0.433903 0.156255 -0.025921 0.145968 0.077066 0.409359 -0.221292 0.141697 0.183736 0.269433 0.00159 0.118946 0.161268 -0.317017 0.192266 0.307683 -0.092117 0.04591 -0.174083 0.006318 -0.542132 0.38018 0.057132 0.351589 -0.314442 0.159615 -0.225417 0.085074 -0.053398 0.247373 -0.613889 -0.118911 -0.17207 0.057989 -0.552996 0.270544 0.40481 0.132177 -0.155316 -0.050911 -0.003809 0.256922 0.026633 -0.163619 -0.113043 -0.190039 -0.159643 0.348895 0.09843 0.178949 -0.345753 -0.063346 -0.227856 -0.222137 0.13733 0.02892 0.005716 -0.274982 0.061067 0.331328 -0.088296 0.114096 -0.001499 -0.226213 -0.010201 -0.088028 -0.057342 -0.101757 0.053999 0.05723 -0.248443 0.64567 0.003774 -0.041116 -0.225983 0.430004 -0.112425 0.066782 0.113842 0.123252 -0.090946 0.065643 0.210424 0.350858 0.044495 0.213763 0.182009 0.474345 0.127101 -0.059359 0.589887 -0.364519 -0.416451 0.166539 0.181747 0.045452 0.080504 0.056564 -0.093885 -0.009284 0.07642 -0.435996 0.080179 -0.038672 -0.466611 0.008326 -0.416484 0.219098 -0.031935 -0.04333 0.220561 -0.155464 -0.080748 -0.035712 -0.085038 0.519083 0.208481 0.481447 -0.020451 0.465242 0.417829 0.226317 -0.065752 0.037711 0.265786 0.04484 -0.370742 -0.051513 -0.004672 -0.204009 -0.266941 0.13566 -0.252495 -0.083264 -0.068174 0.233837 0.142263 0.568666 0.26328 0.260721 -0.189065 -0.247679 -0.375611 0.181459 -0.103489 -0.207787 -0.102924 0.185324 -0.583804 -0.113516 0.058032 -0.231399 -0.083739 0.034629 -0.167188 0.146694 -0.395772 -0.224761 0.374559 0.412192 0.031651 0.603909 -0.142782 0.017793 0.101731 0.018665 0.167571 -0.127082 -0.550586 -0.055079 -0.24939 0.353129 -0.181357 0.394676 -0.283621 0.088231 0.216502 0.180771 -0.157222 0.022973 0.221195 -0.234709 -0.141736 0.165675 0.072223 -0.295858 0.037253 0.072081 -0.00533 0.244389 0.227372 -0.070582 -0.111124 -0.022125 0.300309 0.105631 -0.284016 0.501999 0.275584 -0.135233 0.14051 -0.224436 -0.031903 -0.111025 -0.260925 0.206048 -0.370933 -0.299286 -0.070056 -0.476094 0.05659 0.118707 0.090618 0.37301 0.076936 -0.086077 -0.190456 -0.543532 0.271442 -0.161704 -0.04282 0.105039 -0.083082 0.251984 -0.268816 -0.450148 -0.366584 0.182446 -0.060545 0.10068 0.215858 0.309758 -0.024623 -0.203894 -0.207535 -0.484876 -0.090411 -0.238246 0.158489 0.021265 -0.232045 0.023702 -0.525538 -0.05113 0.01552 -0.269288 -0.085252 -0.183541 -0.147715 0.117457 0.024442 0.332149 0.090499 0.056358 -0.094998 0.054311 0.020796 -0.250264 0.151573 -0.069931 0.142521 -0.273468 0.012858 -0.277078 0.038843 0.09508 -0.001011 -0.250255 0.243729 0.360384 -0.458336 -0.10543 -0.152447 0.466731 0.074145 0.232078 0.334654 0.292966 0.155022 0.038441 0.131808 0.335087 -0.02072 -0.364699 0.129973 0.149133 -0.354451 0.292605 0.050503 -0.186921 -0.362156 0.091807 -0.495215 -0.077634 0.19596 0.101242 0.059916 -0.094343 -0.316598 0.118317 -0.039284 -0.020753 0.23013 -0.316753 -0.085853 -0.067024 -0.053781 -0.50628 -0.053619 -0.075793 0.073053 -0.056886 -0.187724 0.435191 0.063002 -0.595836 -0.08075 0.142942 -0.259322 0.356303 0.052642 0.32325 0.333975 0.125805 0.058542 0.347961 -0.341506 0.253769 0.413692 0.42266 0.101556 0.108964 0.160024 0.020027 0.059182 -0.338511 0.156063 -0.160787 -0.294595 0.135821 -0.45119 -0.023656 -0.219001 -0.262462 0.182099 0.058894 0.183256 0.090061 0.11709 -0.033141 -0.286595 0.583368 -0.228323 -0.10238 -0.288989 -0.333926 0.315102 -0.150077 0.06765 0.44114 0.330148 0.269212 -0.508453 0.135678 0.449326 0.133807 0.599589 0.08454 -0.117421 -4.09E-4 -0.304892 -0.33758 -0.13335 -0.463353 -0.018102 0.17935 -0.240236 -0.09003 0.30177 0.110887 -0.223731 0.240543 -0.056967 -0.274245 0.143548 -0.223594 -0.2254 0.335625 0.039357 -0.019032 0.212481 0.160584 -0.07044 0.314791 -0.150942
asylum 0.022393 0.19684 -0.122662 -0.169854 0.170028 -0.105361 0.247629 0.359459 0.264573 -0.175021 -0.127856 0.228047 0.045052 -0.163597 0.100771 -0.222438 -0.182184 0.079254 7.75E-4 0.247912 0.00131 -0.09124 -0.477059 0.24277 0.169043 -0.148288 0.059492 0.394425 -0.026756 -0.12375 0.039294 0.24173 0.009723 0.148984 -0.11261 0.107257 -0.136585 0.446737 0.003005 0.033375 -0.295009 -0.042844 0.286592 0.442862 -0.319334 0.036387 0.083112 -0.315376 -0.279356 -0.153062 -0.041889 -0.115001 0.270123 0.413839 -0.032322 0.279578 0.294661 0.013116 0.199328 -0.303951 -0.06585 -0.065462 -0.219338 -0.306406 0.028875 0.108586 0.207745 0.038099 0.290514 -0.019332 0.073495 -0.45211 -0.202005 0.042099 -0.215984 0.019402 0.055458 0.196376 -0.135046 -0.19813 0.295147 0.002036 -0.119284 0.201101 0.081468 -0.339835 -0.103352 -0.202168 -0.005598 0.0427 0.212583 -0.047725 -0.195057 0.089499 0.231766 0.407811 0.20592 0.308596 0.051037 -0.476751 0.031892 -0.184655 -0.148141 -0.052029 -0.010433 -0.227786 0.003676 0.105072 0.234037 -0.016058 -0.116557 -0.131719 0.249896 0.230683 -0.019335 0.170964 -0.207824 -0.003242 0.311338 0.268906 0.142311 -0.126958 0.05012 0.436295 0.24541 -0.022855 0.315149 -0.182499 0.126505 0.333065 0.028742 0.244888 0.155114 0.032193 0.166278 -0.048652 0.438907 -0.122077 0.145285 0.210543 0.005811 -0.089502 -0.247752 0.026619 -0.283159 -0.139614 -0.146233 -0.215886 0.222969 -0.087527 0.117978 0.052796 0.141031 0.100853 0.21697 0.00487 -0.104162 -0.145819 -0.050171 0.140274 -0.030481 -0.341347 -0.083417 0.316747 0.035791 -0.437659 0.345121 0.026626 0.089819 0.01382 0.040234 -0.041122 -0.14971 -0.117812 0.076548 -0.297116 0.015257 -0.080423 -0.054201 -0.241381 0.001685 -0.127727 0.050728 0.043797 0.074025 0.286194 0.168148 0.267546 -0.459705 -0.00857 -0.081067 0.086526 -0.293032 0.006872 0.164045 0.034929 0.148457 0.003182 0.297042 -0.00928 -0.191347 0.082042 0.079357 0.119168 0.084242 -0.037605 0.08671 0.065677 -0.065756 -0.206153 -0.236552 0.269234 -0.0481 0.078628 -0.138401 0.0169 0.154531 0.008328 0.026548 -0.195121 0.280122 -0.249671 -0.314424 0.22733 0.062517 0.061138 0.008846 0.378153 -0.135488 0.310024 0.129727 0.025172 0.19051 -0.217897 -0.183441 0.144637 -0.009954 -0.226295 -0.033233 0.329354 0.081753 -0.034988 -0.202997 0.331975 -0.013566 -0.108141 0.563256 0.102841 0.035719 0.155299 -0.069332 -0.03084 -0.153402 -0.120503 0.342008 -0.015422 -0.158736 0.056042 0.137477 -0.430816 0.059717 -0.00538 -0.124946 -0.307119 0.316454 -0.527576 -0.352939 0.298679 0.162043 0.244077 -0.08162 0.004666 -0.189928 0.15466 0.041246 -0.140851 0.396986 0.291231 0.233853 -0.13957 -0.224917 -0.165228 -0.047463 0.198455 -0.003842 0.333344 -0.114862 -0.064486 0.206263 0.043008 0.063603 -0.22624 -0.023617 -0.078526 -0.081378 -0.289879 0.004067 -0.05073 -0.015379 -0.048944 -0.12056 -0.267037 0.076815 -0.114262 -0.086203 0.216834 -0.195669 -0.476989 -0.11083 0.347028 0.104512 -0.080374 0.030497 -0.186601 0.330893 -0.048169 0.133045 0.113548 0.042714 -0.046842 0.046833 0.002738 0.246115 -0.10233 0.106327 0.032433 0.027961 -0.016734 0.06181 0.03257 0.097598 0.173662 0.093387 -0.193476 -0.25993 0.259152 -0.367162 0.256784 0.180606 -0.001906 -0.077079 -0.219691 -0.071773 0.188409 0.486184 -0.241719 0.036242 0.314952 -0.011188 -0.23592 -0.207964 0.033757 -0.108782 0.141289 -0.084781 0.061689 0.026757 0.219026 0.342524 0.233147 -0.039805 -0.308374 -0.101725 -0.152775 0.187752 -0.218112 0.090097 -0.192269 -0.005315 0.286657 -0.101167 0.469784 0.082699 0.039801 -0.216854 -0.510991 -0.025504 0.051976 -0.131188 0.306185 -0.386473 0.055744 0.172845 0.254148 -0.04061 -0.237317 0.322998 -0.083516 -0.134038 0.104152 0.01845 -0.142835 -0.249984 0.097326 0.123949 -0.202204 -0.105209 0.261484 -0.071999 0.089964
manslaughter -0.271152 0.159919 -0.177165 -0.062494 0.16827 0.059946 -0.107452 0.221175 -0.204894 -0.113637 -0.219658 -0.399895 -0.217431 -0.006189 0.028941 0.147236 -0.424927 -0.240137 -0.314066 0.285546 -0.224032 -0.253546 -0.213264 0.256221 -0.034214 0.174455 0.319449 0.258157 0.102892 -0.459645 0.104361 -0.322129 0.009835 0.344989 0.027949 -0.172167 0.1657 0.026175 0.11809 -0.333602 -0.332387 0.098291 -0.210198 0.201305 -0.114306 0.463335 -0.075001 -0.266753 -0.045251 0.025762 0.403593 -0.1436 0.331897 0.515329 -0.130398 0.357775 -0.058148 0.011735 -0.158684 -0.592687 -0.296436 0.4336 0.067858 0.033365 0.069517 0.179191 -0.150045 -0.070637 0.344747 0.210825 -0.088543 0.098871 0.302299 0.384421 0.107846 -0.30213 -0.432635 0.052109 0.456543 0.123664 -0.098138 -0.001477 0.076685 0.204644 0.08796 0.019355 0.384504 -0.155699 -0.150732 -0.068175 0.52825 0.050499 0.026997 0.083509 -0.001232 0.344543 -0.188552 0.119475 -0.509228 -0.21112 0.543576 -0.248457 0.213366 0.095165 -0.23048 -0.476439 -0.169249 -0.066866 0.18898 -0.267979 0.002339 0.43728 -0.401828 0.291741 0.1793 -0.032929 0.001727 0.092311 -0.163954 -0.016685 0.137295 0.249616 -0.35542 -0.25617 0.111839 -0.012129 0.097646 -0.087582 -0.005553 0.289314 -0.064304 0.007986 0.144196 -0.471492 -0.509672 0.470747 0.221302 -0.310187 -0.042669 -0.318713 0.082087 -0.018306 -0.068237 0.014458 0.315135 -0.026522 0.042042 -0.144577 -0.053741 0.350931 -0.20897 0.026282 -0.15735 0.124868 -0.183046 0.245534 -0.378863 0.363243 -0.303011 -0.415534 -0.026399 -0.36243 0.260004 0.017762 -0.042524 -0.557449 0.017862 0.028778 0.36457 -0.756833 0.501386 -0.144142 0.253749 -0.346538 0.276556 -0.436348 -0.192243 0.166747 -0.240693 -0.196035 -0.035314 0.30319 0.737713 0.234875 -0.184984 0.132892 -0.191074 0.093033 -0.096644 0.131493 0.222704 0.034908 0.026828 -0.120524 0.12606 -0.271212 0.118469 0.029612 -0.28793 0.49215 0.134352 -0.135597 -0.135752 0.406839 -0.198474 0.028687 0.47449 -0.019709 -0.03346 0.389432 0.212576 0.15055 -0.274558 -0.111784 -0.291939 0.073598 -0.027941 -0.098652 0.282523 0.10088 -0.284044 0.150892 -0.220777 0.24351 0.070381 -0.001947 0.176717 0.360483 0.069205 0.066787 -0.257812 0.500495 0.198738 0.371442 0.159747 0.218553 0.29783 0.034946 -0.377226 -0.112092 0.319392 -0.074754 -0.051932 -0.178944 -0.221411 0.025345 -0.097037 0.210982 -0.037877 -0.437708 0.129595 -0.216095 0.126618 0.472534 0.064718 0.191796 -0.045737 -0.364512 0.179148 0.178367 -0.087075 -0.064052 0.010099 -0.138314 -0.228148 0.441701 -0.225099 0.304379 0.208814 0.188103 0.110286 -0.281709 0.21382 0.340483 -0.016634 0.146441 -0.250073 0.18924 0.164572 0.033385 0.295451 -0.048133 -0.14466 -0.078555 -0.138425 -0.148509 -0.32358 -0.362418 -0.157049 0.154232 -0.076424 -0.111307 0.24538 -0.214622 0.15193 -0.156606 -0.166974 -0.155296 -0.233442 -0.496395 0.230315 0.215712 -0.216075 0.014826 0.049366 0.097278 0.028404 -0.098381 -0.05848 0.059075 0.025818 -0.070243 0.339585 -0.209454 1.4E-4 0.040181 0.163754 -0.281987 0.187535 0.205848 -0.161837 0.402938 -0.470919 0.63379 -0.398126 -0.238071 0.073988 -0.053206 -0.27849 0.167051 -0.382432 -0.347076 0.339352 0.090371 0.556893 0.065759 0.425664 0.312613 -0.391043 -0.568776 -0.136773 -0.253243 0.088133 0.058012 -0.140437 -0.665497 -0.033381 0.140771 -0.144328 0.367124 -0.077775 -0.412141 0.207758 -0.179821 -0.222453 -0.392921 -0.079707 0.129246 0.344259 0.411452 0.095978 0.033169 -0.015555 0.026563 -0.625569 0.03966 -0.17479 -0.172948 0.342385 0.057245 0.109007 -0.090462 0.366433 -0.547031 0.108299 -0.228464 -0.057845 -0.081312 -0.146647 -0.058739 0.263094 -0.230917 -0.387498 0.130541 0.338765 0.307928 0.433333 0.534718 0.095796 -0.232271 -0.187142 0.160115 -0.043917 -0.074449 -0.240995 0.101212 0.127126 0.146771 0.051471 -0.00916
music 0.133309 -0.10861 -0.033637 -0.14374 0.240317 -0.038042 0.16075 0.033254 -0.108021 -0.119451 -0.154433 -0.185139 0.136004 -0.06215 0.026128 0.166884 -0.036871 -0.052473 0.159145 -0.038485 -0.171002 0.165306 0.056042 -0.00479 -0.075587 -0.00919 0.183941 0.057154 0.042733 -0.122098 -0.095598 0.118923 -0.217906 -0.098807 0.25558 0.032426 0.008781 0.051606 0.161374 0.255555 0.118653 0.026392 -0.024926 0.100428 0.200193 -0.03676 -0.114349 0.12826 0.232809 0.205219 0.137556 -0.147055 0.243964 -0.124411 -0.004635 0.312007 -0.147964 -0.167446 0.09557 -0.006794 -0.092988 -0.024964 0.056737 -0.192858 0.088662 0.223291 -0.215626 -0.105748 -2.93E-4 -0.179513 0.160539 0.00355 0.083496 -0.059481 0.034944 0.086637 0.065783 -0.163934 0.023981 0.19733 0.015889 0.203663 0.028364 0.045435 0.220494 -0.132661 0.004819 0.053294 -0.054816 -0.038324 0.147192 -0.044442 0.254844 0.119619 0.083458 0.059789 -0.055733 -0.059479 -0.034523 0.001872 0.023397 -0.033956 0.004444 -0.150464 0.15415 -0.008457 -0.076613 -0.025895 -0.264647 0.01494 0.106511 -0.034216 0.137788 -0.015008 0.145121 0.088561 -0.058724 -0.181636 0.147039 0.123051 0.060465 0.107185 -0.057163 0.15209 -0.069771 0.080376 -0.105655 0.085063 0.374069 0.012105 -0.254186 -0.113577 0.223928 -0.147503 0.244396 -0.1496 0.067394 0.163183 -0.13879 -0.209838 -0.12558 -0.023349 0.114198 -0.041009 -0.028799 -0.093864 -0.238645 -0.00422 -0.002689 -0.10817 0.096005 0.025482 -0.218411 0.051481 0.078629 0.070926 -0.057422 0.277909 -0.032419 0.048869 0.08902 -0.210642 0.25234 0.059678 0.096026 0.18777 0.165041 -0.184106 0.065873 -0.073546 -0.090397 -0.251387 -0.030444 0.193106 0.224239 0.017378 0.106511 -0.081723 0.028831 0.054489 0.040885 -0.148494 0.021416 -0.13067 -0.130683 0.063132 0.02131 -0.0238 0.227293 -0.083987 -0.160659 -0.068383 -0.131014 -0.017512 -0.119738 0.098343 -0.032143 -0.059446 0.001555 0.175107 -0.014086 0.087811 0.101236 0.046771 -0.045667 -0.088208 -0.076473 -0.111471 0.034973 0.313853 -0.038343 -0.0562 0.010503 -0.007432 -0.112706 -0.033071 0.153846 0.291217 -0.161731 0.031869 -0.01315 -0.277517 -0.145984 -0.029794 0.023082 0.031147 0.063453 -0.023294 -0.037141 -0.134401 -0.153159 -0.040061 0.143287 0.035276 0.00176 -0.014917 0.084401 -0.128171 0.191488 -0.254784 -0.111828 -0.111717 -0.087126 0.010811 -0.076963 0.069563 -0.035697 -0.020019 1.07E-4 -0.061544 0.028457 -0.134502 0.088265 0.06229 0.1909 -0.270608 0.206933 0.164893 0.012137 0.051648 -0.050269 0.108281 -0.017136 -0.075518 0.050297 0.166271 -0.241706 0.11895 0.072863 -0.019652 0.098387 0.03647 -0.10416 0.138152 0.058188 0.260156 -0.223696 -0.135024 -0.089925 -0.05518 0.105085 -0.312733 0.041797 -0.098878 0.108181 -0.035276 -0.026829 0.019133 0.004455 0.089123 0.191219 0.22013 -0.158678 -0.015244 -0.077524 0.116225 0.13364 -0.358004 0.259567 0.346841 -0.024889 0.150505 0.262677 -0.070129 0.140223 0.13827 0.104562 -0.051909 -0.086513 0.232769 -0.069904 -0.059903 -0.01383 -0.35734 -0.062024 -0.065645 -0.254861 -0.118041 0.007409 -0.060184 0.141521 0.114251 -0.20091 0.113715 0.092102 -0.259058 0.107744 0.131432 -0.107726 -0.201963 -0.15569 0.058138 -0.052112 0.155835 0.030724 -0.067756 0.285423 -0.034733 0.287746 -0.034618 -0.07378 -0.047529 -0.035008 -0.29887 0.197782 -0.067867 0.367683 0.133071 -0.376092 0.137847 -0.178174 -0.172929 0.024555 -0.094869 0.060212 -0.189909 -0.099378 0.090349 -0.081512 0.053778 0.013847 -0.118891 0.093101 -0.158074 0.286547 -0.408577 0.111641 0.062057 -0.131861 -0.194344 -0.062142 0.045808 0.045205 -0.158072 -0.535006 -0.115535 0.007878 0.025838 -0.132402 0.0618 0.129149 0.03731 -0.181232 -0.061095 0.240011 -0.22096 -0.143374 -0.104095 -0.051823 -0.030846 0.021684 0.061477 0.063585 -0.027455 0.089374 -0.110429 0.020212 0.036753 0.223838 0.216146
record -0.053191 -0.017046 0.156541 -0.167366 0.229791 0.220127 0.103463 -0.00674 0.102097 -0.018554 0.083521 0.017868 0.002652 0.074704 0.038632 0.172499 0.034666 0.161175 -0.067807 0.00607 0.090595 0.212671 -0.159319 0.066369 -0.21307 -0.289616 0.107897 0.154869 0.208544 -0.085521 0.013651 -0.033773 -0.086628 0.025781 -0.127169 0.015817 0.042702 -0.096912 0.027539 -0.059288 0.15397 -0.11196 0.019882 0.008118 0.038697 -0.211081 -0.028119 0.066116 -0.171269 -0.040778 -0.045819 -0.252394 0.067417 -0.163566 0.056575 0.038679 -0.050978 0.004923 0.047954 -0.323653 -0.065682 -0.198436 0.152556 -0.078571 0.121945 0.090031 -0.086167 -0.05733 -0.141206 -0.024338 0.229844 0.195682 0.070058 -0.237435 -0.091853 0.018565 0.033725 -5.58E-4 0.014983 0.133316 -0.122383 0.029691 0.039376 -0.017895 0.026462 0.088112 0.143277 0.266837 0.05064 0.048094 -0.043568 0.110504 -0.157158 0.004343 0.082622 0.233513 -0.158581 -0.09627 -5.53E-4 -0.003921 0.065693 0.159401 0.085607 -0.04943 0.172304 0.129948 0.099689 -0.034302 0.088848 -0.074733 -0.056214 -0.062357 0.091581 0.112538 -0.042754 -0.137699 0.028319 -0.33244 -0.126749 -0.044611 -0.21704 0.00577 -0.179349 -0.033527 -0.057234 0.301462 -0.187948 -0.001727 0.210238 0.172358 -0.125613 0.109284 0.057602 -0.089476 0.252809 -0.016084 -0.082429 0.008536 0.195046 0.100629 -0.038123 0.170364 -0.047647 -0.09689 -0.035969 0.117766 0.130291 0.052535 -0.21883 -0.147943 0.027833 -0.048746 -0.059055 -0.167124 0.060104 0.056558 -0.136703 0.023072 0.232718 0.056496 -0.056759 0.228423 0.034341 0.066672 0.113427 0.083539 0.017554 0.010781 -0.043442 -0.303081 -0.152161 0.079776 -0.182665 -0.161148 0.002367 0.102552 0.026229 0.129424 0.028815 0.11198 0.097182 -0.086933 -0.245674 -0.03582 -0.129616 0.031969 -0.170237 -0.185795 -0.0488 0.037637 0.017707 -0.012264 0.023482 0.047268 -0.152217 -0.237351 0.131252 -0.158859 0.085499 0.059343 0.083549 0.112924 -0.060094 0.081952 0.121098 0.13378 0.029129 0.046558 -0.160176 -0.007391 -0.167684 -0.025922 0.056331 -0.070286 0.015817 -0.048363 -0.003058 0.008597 0.003203 0.260383 -0.117777 0.054864 0.026872 -0.057575 0.15137 -0.179589 0.054261 0.217829 -0.063725 0.027342 -0.002319 -0.057734 0.033078 0.120232 -0.003013 -0.15193 0.010928 -0.186712 -0.022567 0.061452 -0.016269 -0.286916 0.318675 -0.216194 0.010529 -0.094235 0.263121 -0.063549 -0.043392 -0.126849 0.129777 -0.013353 -0.099365 0.058153 -0.198713 0.124035 0.053303 -0.148166 0.032108 -0.006592 -0.061767 0.049967 0.074914 -0.049725 0.044965 0.034273 0.031465 0.018082 -0.1669 -0.069086 0.130571 -0.212428 0.016975 -0.068706 -0.060796 -0.043198 0.064547 -0.093706 -0.094507 0.083908 0.146541 -0.03619 -0.068717 -0.072275 -0.013058 0.08212 -0.049191 0.07968 -0.194441 0.068142 0.003817 0.024401 -0.252016 0.162185 -0.096421 0.037812 0.035499 0.088136 0.062061 -0.163954 0.016625 -0.037624 0.247052 -0.145743 -0.201737 -0.171741 0.049801 -0.070989 0.124819 0.211236 0.053452 0.084802 0.199035 -0.286035 0.04896 -0.142816 -0.089567 0.15481 0.032348 -0.163609 0.1344 0.111292 -0.018254 -0.18151 -0.14331 -0.069954 0.055038 -0.008016 -0.037497 -0.07144 0.046228 -0.117727 0.113825 -0.207607 -0.340618 0.064947 0.255161 -0.17567 0.212012 -0.077651 0.050718 -0.097467 -0.086282 0.096967 0.085506 0.038728 -0.002442 -0.01122 -0.158544 -0.064608 -0.023703 -0.044815 -0.071362 0.052984 0.08437 -0.157739 0.075541 0.113203 0.054512 -0.037601 0.053276 0.081507 -0.07859 -0.065225 -0.095084 -0.009811 0.106572 0.060701 0.098498 0.056342 -0.092706 0.058132 0.094878 -0.05105 -0.060612 -0.154246 -0.096272 0.136225 0.019834 -0.077568 0.237652 0.00798 0.061714 -0.115822 -0.049808 -0.088275 0.005042 -0.030013 -0.154744 0.239112 0.054069 0.021599 0.053678 -0.131482 -0.018034 0.15707 0.056048 -0.043897 -0.09058 0.298032
energy -0.151667 -0.153064 -0.020923 -0.071878 -0.092604 0.173402 -0.009884 0.156534 0.05925 0.089239 0.133344 -0.016731 -0.084351 0.109576 -0.025888 0.230116 -0.17849 0.031833 0.098972 -0.045561 -0.089555 -0.135705 0.269818 -0.05456 -0.115621 -0.211803 -0.083547 0.310117 0.125382 0.138959 -0.123549 0.007603 0.001322 -0.090408 -0.361253 -0.12639 -0.053549 0.035446 0.150017 0.082217 -0.027893 -0.047303 -0.061167 -0.018652 -0.154721 -0.044054 0.017188 -0.339893 -0.255045 0.017407 0.156887 -0.056429 -0.015896 -0.112944 -0.134908 0.09253 -0.020878 0.176443 -0.021739 0.308797 -0.071622 0.247553 -0.10869 -0.131609 -0.067619 -0.264834 -0.01443 0.179614 0.075011 -0.210142 -0.069847 0.038681 -0.156564 -0.03872 0.118906 -0.020375 -0.200774 -0.203771 0.055805 0.178097 -0.102918 0.05534 -0.055299 0.090772 -0.016924 0.084606 0.153358 -0.089367 -0.147784 -0.066033 -0.033079 0.02098 -0.060105 -0.167997 -0.099503 -0.066028 0.132577 -0.073623 0.075811 -0.051906 -0.087272 0.194112 0.082639 -0.095584 0.178672 -0.124542 -0.130942 -0.381281 0.170966 0.109065 -0.223466 0.006406 0.131198 -0.108111 0.265936 -0.034997 -0.079904 -0.166251 -0.037225 0.215498 -0.182657 0.280091 0.038512 0.112029 -0.16547 0.16677 -0.099923 -0.098184 0.035899 -0.055687 -0.087699 -0.347205 -0.119515 0.069722 -0.152624 -0.051932 0.066399 -0.185667 -0.035053 -0.208178 0.120408 0.072973 -0.159586 0.036007 -0.180995 0.113656 -0.002558 0.167142 0.216202 -0.036498 0.082028 -0.021254 0.094796 -0.020135 0.128635 0.406294 0.012868 0.00617 0.210262 0.117921 -0.06113 0.120793 0.022864 0.115848 0.138002 -0.002763 -0.021227 0.304882 -0.149318 0.046566 0.25257 -0.064043 0.012371 0.032038 0.01708 -0.028022 0.01815 0.156061 0.151989 0.17381 0.1452 0.136653 0.135782 0.058907 -0.261979 0.070078 0.233024 0.160326 -0.112776 0.078181 -0.04679 -0.326806 0.171222 0.114877 0.044675 -0.122923 0.03592 -0.054027 -0.27025 -0.002722 0.140976 0.089196 0.169714 -0.072719 -0.263522 -0.261668 -0.032064 0.161532 0.045675 -0.049741 0.118307 0.095863 0.231708 -0.04588 -0.048613 -0.086108 0.141488 0.024827 0.096834 -0.095966 0.142716 -0.148697 -0.159019 0.096717 -0.078839 0.135963 0.127439 -0.09315 0.097626 0.331971 -0.002246 0.039131 0.001962 -0.260199 -0.106072 0.093137 0.019489 0.125379 0.112272 -0.094317 -0.183919 0.010821 0.049175 -0.107064 -0.010241 -0.028434 -0.019113 -0.028297 -0.039471 0.026723 -0.09016 0.186007 0.029821 -0.030485 -0.079449 -0.140706 -0.041473 0.088326 -0.099797 0.031458 -0.105602 -0.087654 -0.113417 0.12973 -0.050313 0.064468 -0.184866 -0.129306 0.066494 0.11176 -0.200892 -0.046738 -0.112573 -0.119358 -0.001739 0.086545 -0.040259 0.016005 -0.011852 0.030485 0.20032 0.081695 0.33578 -0.067243 0.142103 0.180083 0.030077 0.058512 -0.122539 0.026074 0.022805 -0.181721 -0.219644 -0.122437 -0.024707 -0.048879 0.106186 -0.04154 -0.084921 0.071199 -0.087303 0.27183 -0.046842 0.244321 -0.146281 0.086753 0.0381 0.145741 -0.080609 -0.015419 0.051566 -0.166354 0.486022 0.072585 0.022268 -0.135226 0.194449 0.050856 -0.357948 -0.192609 0.046891 0.216673 0.01413 0.109791 -0.131647 -0.247417 0.081609 -0.113576 -0.079749 0.092331 -0.064931 -0.137164 0.046303 0.077081 0.026662 0.214999 0.053537 -0.245986 0.030811 0.009545 -0.145589 0.104072 0.061704 0.078218 0.128972 0.179355 0.216688 -0.061189 -0.128613 0.217322 -0.029743 0.017885 0.12991 -0.012039 -0.013959 -0.075704 -0.019801 0.169433 -0.077379 -0.091026 -0.027353 0.275813 -0.038918 -0.153692 0.257555 -0.003291 -0.062476 0.1393 0.230961 0.058966 0.056882 0.206525 0.258243 0.131759 0.194167 0.088549 -0.134188 0.09545 0.115566 0.20383 0.030067 0.331314 -0.221662 -0.046235 -0.272374 -0.015606 -0.014969 -0.465227 -0.165518 0.182559 -0.06831 0.18034 0.106008 0.369732 0.036165 -0.151042 -0.013358 -0.296282 -0.021829 0.346872
announcement 0.042379 0.11503 0.140658 -0.088769 0.100936 0.135363 -0.181145 -0.135551 0.064027 -0.14141 0.125418 0.044225 0.020588 0.034487 0.035481 0.005048 -0.141065 0.014664 0.113902 0.130921 -0.153758 -0.105192 0.125304 -0.040818 0.176112 0.121097 -0.099189 -0.041173 -0.287101 0.01275 0.10042 0.076245 0.019721 -0.12798 -0.01934 -0.043984 0.061891 -0.079288 0.048038 0.126376 0.07415 0.050533 -0.117358 -0.010958 -0.198614 0.070188 0.056985 0.167512 -0.043851 0.063114 -0.039812 0.089596 -0.138924 0.260105 -0.193562 0.128733 0.113344 0.022862 -0.170292 -0.138204 -0.163524 -0.052592 0.115064 0.198063 -0.122097 -0.107418 0.012291 0.031738 0.191231 -0.188576 0.124918 0.100973 0.0561 -0.366709 0.094077 -0.051619 -0.049592 0.05606 0.066559 0.080401 -0.066873 0.088742 0.155273 -0.085542 -0.176981 -0.027895 -0.111586 0.05803 0.032682 0.127185 -0.088776 0.163858 -0.086874 0.08763 -0.090439 -0.09379 0.1709 -0.198584 0.0171 -0.090504 -0.015652 0.27913 0.073332 0.008294 0.053894 0.002688 0.280319 0.042472 -0.012315 -0.010597 -0.046372 -0.095589 -0.111535 -0.174239 0.057338 -0.199141 -0.040776 0.089239 -0.103248 -0.221981 -0.252877 -0.122588 -0.15468 0.03717 -0.02921 0.045884 -0.23792 -0.051814 -0.052819 -0.021202 0.171301 -0.192551 -0.073184 0.076229 -0.040964 0.014643 -0.027694 -0.043873 0.107506 0.08744 0.109843 0.088036 -0.01505 -0.077956 0.092291 0.065127 0.039827 -0.078853 -0.240145 -0.067896 0.106462 0.094416 -0.062358 -0.078148 -0.100275 -0.04341 -0.033647 0.071018 -0.151663 -0.102021 -0.083553 -0.281265 0.1231 0.017553 -0.007923 -0.013688 0.038271 0.054928 -0.065444 -0.056837 0.031576 -0.22501 0.04258 -0.219622 -0.282566 0.082783 0.02603 -0.028378 -0.063166 0.239405 0.101044 -0.248142 -0.122788 -0.021403 0.122683 0.048886 0.146852 0.049214 0.058461 4.8E-4 0.011422 0.164888 -0.048512 0.036162 -0.069207 -0.071388 -0.254824 -0.061239 0.092064 -0.113497 0.054699 -0.053224 0.067133 -0.293838 0.107519 -0.087905 -0.062005 -0.045381 -0.098111 0.200103 -0.096239 -0.098555 -0.110956 -0.119237 -0.009495 0.151433 -0.013821 -0.070686 0.00599 0.189943 -0.063043 -0.096139 -0.227529 -0.123295 -0.142463 0.139289 -0.053026 0.265382 0.053354 0.01223 0.009309 0.3078 0.081418 0.031654 0.135487 0.053678 0.216145 -0.06269 0.277752 -0.026287 -0.133661 0.011903 -0.035636 -0.210321 -0.04559 0.01816 0.060793 0.116301 -0.072742 -0.019403 -0.006935 0.009091 0.107295 -0.09795 -0.103127 0.027398 -0.267209 0.346041 -0.059588 -0.018071 0.076805 -0.080324 -0.112305 0.019544 -0.200163 0.09476 0.126534 0.204241 0.156127 -0.050599 -0.010936 -0.148506 0.095837 0.080488 0.124362 0.030732 0.195269 0.200125 0.231583 0.057744 0.051498 -0.10823 -0.016739 0.131264 -0.101824 0.065274 0.049187 0.040388 -0.021683 0.149539 0.073964 -0.103014 -0.065831 -0.048976 0.076301 0.042394 -0.134848 -0.055388 0.074908 0.061578 0.1666 0.196484 -0.15222 -0.054234 0.002211 -0.061982 0.166883 -0.054905 0.12408 0.008629 0.119349 -0.006892 -0.137192 0.074664 -0.05272 -0.109 -0.077308 -0.009321 -0.025525 -0.077222 -0.128076 -0.192021 0.124071 -0.140991 -0.011628 -0.046306 0.142856 0.179797 -0.054443 0.130785 -0.147173 0.250008 0.176668 -0.016094 -0.077322 -0.051043 0.060307 -0.222701 0.026545 0.0686 -0.048092 0.130643 0.075767 0.088287 0.138018 0.203497 -0.162006 -0.103385 0.021302 0.089112 -0.02926 -0.155838 -0.027391 -0.057637 -0.031122 -0.016284 -0.050745 -0.110911 0.116422 0.074605 0.103528 0.070372 -0.13812 -0.041182 0.050407 0.03499 -0.004902 0.133296 0.189951 0.093061 0.227753 0.14936 -0.074136 0.030488 -0.00651 -0.168299 -0.153251 -0.084517 -0.115793 0.233696 0.00905 0.296069 -0.083152 -0.079209 -0.008518 0.066296 -0.094921 0.04838 0.141202 0.300225 3.24E-4 -0.164932 -0.052255 0.089723 0.035857 0.219705 0.027021 -0.144519 -0.038289 0.103502
mile 0.144424 -0.254175 0.175502 0.069076 0.371701 -0.074375 0.096278 0.167239 -0.199592 0.131562 -0.08753 0.091014 0.037359 0.023769 0.2985 0.276869 0.350684 -0.059055 -0.080619 -0.072481 0.041858 0.069744 -0.167871 -0.090615 -0.096928 -0.016865 0.245044 0.021799 0.036337 -0.172863 0.181178 -0.143658 0.110579 0.147743 -0.214138 -0.341597 -0.179245 0.004013 0.227207 -0.06759 0.021155 0.068754 0.169486 0.126056 -0.067614 0.003433 -0.112705 -0.196974 -0.113532 0.151407 -0.05997 -0.100143 -0.113165 -0.169494 -0.285399 -0.146042 0.132712 -0.095149 0.095289 -0.006843 0.142161 0.194104 -0.069696 0.119573 0.085408 0.18999 0.082323 -4.93E-4 0.108049 0.082534 0.458401 -0.028169 0.186226 -0.223104 -0.02701 0.083561 -0.078346 -0.051298 -0.270879 0.063826 -0.155494 -0.018879 0.159355 -0.330348 -0.066221 -0.415865 -0.235722 -0.075079 -0.051003 0.16897 -0.1099 0.060337 -0.017124 -0.363898 0.026651 0.008939 0.153769 -0.133255 -0.084837 -0.207082 0.071877 -0.073261 -0.026358 -0.22925 0.044499 -0.054642 -0.106123 0.147138 0.298324 0.051578 -0.112116 -0.050417 -0.117754 -0.064267 -0.102097 -0.381061 -0.092948 0.164033 -0.24659 0.198891 -0.042186 -0.089496 -0.012263 0.0732 -0.16759 0.011632 0.287523 0.22207 -0.186591 0.043641 0.093034 0.14159 -0.215082 -0.01117 0.120194 0.2258 0.011851 -0.170562 0.008257 0.163676 -0.044159 0.205013 -0.10183 -0.111253 0.202644 0.023812 0.217294 -0.034556 0.008086 -0.058062 0.139027 -0.060056 -0.328273 0.00538 0.074471 0.058505 -0.196109 0.002386 -0.076855 0.146027 0.049876 0.053841 0.012459 0.179596 -0.023564 -0.27861 -0.230642 -0.069603 0.07374 -0.030565 -0.026186 -0.077146 0.383446 0.168262 0.145677 0.19197 -0.141881 0.041988 -0.048251 0.012594 -0.185445 0.254478 0.006228 0.028605 -0.113637 0.225057 -0.216198 -0.05741 0.031807 -0.155951 0.092257 -0.124638 0.009284 0.140924 0.208876 0.194851 0.220392 0.296469 -0.003595 0.180555 -0.009903 0.074216 0.207223 -0.152114 0.04214 -0.091319 -0.127082 -0.107645 0.01835 -0.14545 0.14885 -0.10076 0.128644 0.059279 -0.122321 -0.196536 -0.192888 -0.355975 0.112927 -0.190507 0.160983 -0.137948 -0.033462 0.249733 0.135638 -0.024773 -0.094948 -0.109232 0.054427 -0.135983 0.198944 0.023094 0.023121 -0.008165 -0.204102 -0.236302 0.016667 0.117084 0.08763 -0.089288 0.091998 0.009327 0.070191 -0.259293 0.078828 -0.09839 0.147559 0.049744 -0.104786 -0.194406 -0.066024 -0.122867 0.07506 0.103265 -0.198514 0.03687 0.238736 -0.054598 -0.037304 -0.11339 0.059571 0.346402 -0.286339 -0.001177 0.091229 -0.213947 -0.22147 -0.081551 0.281499 0.196611 -0.007446 0.065853 -0.237109 -0.04667 -0.03978 -0.116683 0.062666 -0.053588 0.087895 0.230538 -0.046158 -0.10244 -0.250464 -0.027914 -0.278001 -0.230732 0.103911 0.095325 0.056088 0.034734 -0.239029 0.249959 0.075824 0.269559 0.056571 0.0095 -0.286297 -0.019712 0.320806 0.137286 0.067791 -0.119794 -0.224315 -0.082519 -0.13941 0.116744 -0.060132 -0.242305 0.185125 0.100524 0.231552 0.099308 0.401225 -0.080865 0.083463 0.213974 -0.092658 0.043537 -0.070872 0.228574 -0.147385 -0.017814 0.001691 -0.171646 -0.263526 0.048921 -0.080708 -0.412871 0.007538 0.225473 0.083968 -0.346119 0.020771 0.118508 0.033201 0.364257 -0.060615 0.028709 0.163822 -0.044241 -0.167023 -0.012815 0.364038 -0.231778 0.009103 -0.382463 -0.101504 -0.183763 -0.197358 -0.065281 0.124978 0.273456 -0.266659 0.119441 0.134185 -0.06395 -0.082521 0.19732 -0.027013 0.17195 0.204713 -0.013699 -0.020622 0.084857 0.040747 -0.159142 0.152162 0.327684 0.196518 -0.243885 -0.149087 -0.041725 -0.071137 0.066198 0.098114 -0.068956 -0.134801 0.007752 0.040392 0.011468 -0.119039 -0.026494 -0.053637 -0.187319 0.097343 -0.135986 -0.228322 0.165718 0.105279 -0.011574 0.023226 -0.185708 0.024326 0.096612 0.004213 0.271227 0.286221 -0.33043 -0.004732 0.095785
airport -0.010769 0.076517 0.135096 0.087729 0.147058 0.177629 -0.1889 0.307724 0.030713 -0.173972 -0.171547 0.419991 0.127938 0.057937 0.228197 0.181709 -0.133767 0.387522 -0.136336 -0.008588 -0.04049 -0.018985 0.039341 -0.019791 0.114396 0.110652 -0.218534 0.168719 -0.25455 -0.024832 0.144968 0.147521 0.036509 0.275218 0.265001 0.029036 0.003878 0.014963 0.102361 0.124313 -0.216451 0.085674 0.312163 -0.044857 0.24038 0.086983 0.262218 -0.168079 0.093106 -0.044425 0.053621 0.114713 -0.144575 0.311469 -0.026665 0.107383 -0.013271 0.036322 -0.034072 0.16781 0.04671 0.238756 0.001894 -0.063712 -0.101853 0.122082 0.179885 0.142468 0.125208 -0.078094 0.115776 -0.152451 0.39385 -0.092917 0.035069 -0.05525 0.004451 -0.037186 0.163722 -0.17478 0.13729 0.192599 -0.003972 -0.047648 0.145081 -0.135031 -0.369713 0.045534 -0.069063 0.046278 -0.276796 -0.245999 -0.325606 -0.137745 -0.024835 0.107629 0.351698 0.12062 -0.027371 -0.225858 -0.275129 -0.159999 -0.131566 -0.224236 -0.057603 -0.380258 -0.211477 0.0902 0.114693 -0.005789 0.006608 -0.145524 -0.075155 0.113604 -0.150348 -0.08825 -0.061794 -0.285348 0.200425 -0.147223 -0.065553 -0.170027 -0.134821 -0.304873 0.084577 -0.023632 0.183779 -0.083346 -0.235164 0.176593 -0.046579 -0.099203 0.231567 -0.080159 -0.206126 0.392548 0.053325 -0.216539 -0.190437 -0.246961 0.435556 0.107526 0.019081 0.03096 -0.301715 -0.153553 0.08259 0.103715 -0.05546 -0.113734 -0.042261 0.126779 -0.217495 -0.0831 0.164467 0.075324 -0.313831 0.029755 0.003736 -0.232937 -0.095648 7.28E-4 -0.090467 0.121266 -0.006514 -0.088318 0.041214 0.041943 0.006695 0.04985 -0.28107 -0.085554 -0.075553 0.309885 0.121669 0.187425 0.05795 -0.119043 0.058219 0.116235 -0.127568 -0.005991 -0.008363 0.193517 0.001053 0.138912 -0.135569 0.176147 -0.292149 -0.077323 -0.158032 0.052471 -0.200399 -0.121619 -0.054056 0.016885 0.030183 -0.050298 0.081405 0.259676 -0.009559 -0.090415 0.151578 0.002409 -0.040142 -0.090727 -0.02672 -0.063261 0.166493 -0.118274 0.025546 0.089776 -0.06593 0.155525 0.337894 0.031185 0.123993 -0.166712 -0.177991 0.164444 -0.207518 -0.076788 -0.161306 0.067643 0.149126 -0.212901 -0.148929 0.330657 -0.110789 0.047377 -0.052494 0.002531 0.060176 -0.124576 -0.030735 -0.067361 0.206697 -7.09E-4 0.198202 0.008385 -0.167408 -0.076783 -0.200319 0.222872 0.229075 -0.005615 0.155959 0.072879 0.059784 -0.091911 -0.037952 -0.090445 -0.099649 0.063645 -0.142754 0.240307 0.092211 0.278289 -0.063762 -0.095375 0.259458 0.177827 0.103721 -0.084013 0.104729 0.002783 -0.114157 -0.040467 0.043874 0.131628 -0.109104 0.129397 0.015466 0.197807 -0.063347 -0.11193 -0.030755 0.049794 0.225627 0.216805 -0.048708 -0.098426 -0.198331 -0.140077 0.016767 -0.0203 -0.002744 -0.054961 0.183828 -0.001687 -0.035502 0.059837 -0.113086 -0.146128 0.008981 0.059226 0.123751 -0.072028 0.06067 -0.031673 0.08759 -0.263107 -0.043405 -0.158031 -0.040946 0.14816 -0.092283 -0.055589 -0.081361 -0.029307 0.468097 0.224014 0.26324 -0.063958 0.037537 -0.136172 0.062065 -0.013563 -0.283791 0.074352 0.03825 -0.055647 0.158388 -0.109938 -0.217377 -0.152304 0.042736 -0.011703 0.146125 0.062704 -0.077841 -0.259747 0.107951 0.365697 -0.024768 0.062806 0.039249 0.072288 0.032381 -0.020455 0.103593 -0.165723 0.06283 0.1817 -0.119872 -0.257065 -0.015986 0.055786 -0.139497 0.083266 0.235778 0.137292 0.083664 -0.015687 -0.058407 -0.243208 0.03156 -0.153183 -0.046868 0.182396 0.378635 0.18008 -0.06291 0.001216 -0.09636 0.018324 0.126578 0.105746 -0.045641 0.002139 0.078036 0.231836 0.08102 -0.156638 -0.055461 -0.038461 -0.027144 -0.247122 -0.247404 -0.018556 -0.058184 0.135364 -0.413411 0.058815 -0.244174 0.161998 -0.228953 -0.009186 -0.15452 -0.329503 -0.123322 0.02118 0.028577 -0.023307 0.01418 -0.126546 0.110572 0.040102 -0.100098 -0.099622
population 0.031645 -0.186179 0.170108 -0.003312 0.203151 0.019139 0.217438 0.031581 0.062437 -0.086442 0.079201 0.291445 0.203758 -0.063893 0.084445 0.207552 -0.172651 0.068027 -0.060998 -0.126321 0.100003 -0.060359 -0.22995 0.015589 0.327806 0.128425 0.184994 0.202371 0.180729 -0.026951 0.052119 -0.113517 -0.068973 -0.148333 -0.153649 -0.148443 -0.100525 0.096898 0.003228 -0.273824 -0.029963 0.034847 -0.100983 -0.023777 -0.112629 -0.039328 -0.082343 -0.363464 0.049749 -0.099145 0.280143 -0.134729 -0.003893 -0.065361 0.188118 0.020754 -0.006179 -0.041998 0.139624 0.232642 -0.104041 -0.096306 -0.135108 -0.050671 0.057607 0.04285 -0.015036 -0.226498 -0.251458 0.284725 -0.024247 -0.097823 -0.130266 0.001318 -0.181434 0.056283 -0.010773 -0.009164 -0.022432 0.053175 -0.168501 -0.295347 -0.14133 -0.077071 -0.092656 0.059071 -0.011933 -0.093932 0.177204 0.334406 -0.27148 0.258665 0.064291 0.054616 0.132309 0.20587 0.305281 0.089812 0.070748 0.155096 0.068375 0.077157 -0.032709 -0.375168 -0.122223 -0.160632 -0.079284 -0.156042 -0.224492 -0.18371 -0.145054 -0.080824 -0.105904 -0.094976 0.052243 0.013512 -0.182933 0.145304 0.229035 0.092796 -0.007963 0.200155 -0.012837 0.266026 -0.151934 0.082081 0.04342 0.0563 -0.037563 -0.028999 -0.230186 -0.21008 -0.098243 0.115286 -0.031828 0.169283 -0.146689 -0.065524 -0.056166 -0.096035 -0.037238 -0.047873 -0.013992 -0.050396 -0.039808 0.072792 -0.093492 -0.008571 0.058897 -0.31761 0.106481 -0.005549 -0.156512 0.10445 0.250518 0.036085 0.080518 -0.089693 0.021711 0.085428 -0.113623 0.275885 -0.055357 0.159668 0.274935 -0.015938 0.213394 7.22E-4 0.165651 -0.178537 -0.001981 -0.101827 0.008527 -0.062728 0.032823 0.077219 0.154173 0.063017 -0.048958 -0.262063 0.099043 -0.15214 -0.00917 -0.008817 -0.078992 0.197802 0.222374 0.017486 -0.134359 -0.314396 0.262209 -0.042351 0.247663 0.183095 -0.064763 0.192563 0.133129 -0.076476 0.115268 -0.053097 -0.14023 -0.001041 -0.015533 0.043173 -0.063704 0.176253 0.030564 0.14016 0.069045 0.187213 -0.022595 0.050096 -0.021024 -0.127472 -0.236493 -0.069765 -0.199896 -0.340069 -0.085077 -0.040861 0.15908 -0.261737 -0.212841 0.027582 0.233852 0.177353 0.009714 0.14728 -0.056614 0.287266 0.071144 0.033091 0.034064 -0.080232 -0.023986 0.066265 -0.093929 0.134659 0.080372 -0.094183 0.068232 0.185895 -0.17624 -0.101111 -0.066708 0.007637 0.276157 0.012013 0.101862 0.155692 0.056854 -0.066619 -0.029469 -0.060597 -0.203112 -0.005175 0.064279 0.047135 0.125641 0.095829 0.03894 -0.015073 -0.23464 -0.098785 0.106332 -0.052836 -0.091262 -0.216896 -0.040113 0.482903 -0.311576 0.028972 0.251317 -0.084638 0.107926 0.017406 0.055633 -0.13449 -0.237467 0.230612 -0.127428 -0.166243 0.018527 0.03371 -0.026171 -0.014184 -0.056431 -0.133037 0.085425 0.177283 0.064551 -0.266166 -0.047324 -0.030172 0.153944 -3.72E-4 0.101531 -0.043572 -0.136878 -0.125891 0.089176 -0.123009 0.035056 0.070765 -0.059005 -0.103036 -0.110006 -0.095125 -0.067167 0.220442 -0.025003 0.155352 -0.135993 -0.126729 0.027893 0.009519 0.038678 0.250362 0.020131 0.100356 0.058842 0.101401 -0.044121 0.13366 0.087322 0.103363 0.041475 0.037416 0.070028 0.035089 0.166766 -0.198624 0.283443 -0.085565 -0.009211 0.245926 -0.056639 -0.075983 -0.336231 0.201255 0.082657 0.055138 0.033227 -0.021891 0.240654 0.059566 0.077649 -0.02429 -0.150183 0.27626 0.063922 -0.021904 0.012578 0.100865 -0.138896 0.152675 -0.083804 -0.177955 0.035069 0.148272 -0.025522 -0.035235 0.085285 -0.168872 -0.224646 0.053051 0.171999 0.222231 0.00202 -0.00225 -0.006758 -0.025019 -0.141011 -0.003641 0.143872 0.074427 0.03942 -0.077913 0.117182 0.09195 0.03792 0.025042 -0.102308 -0.006411 0.078549 0.033273 -0.235477 -0.058383 0.052121 0.055577 0.066571 -0.130195 -0.112563 -0.096293 -0.132334 0.055586 0.146778 0.23736 0.060255 0.05323
planning 0.073239 0.041043 0.02399 0.046062 -0.039151 0.173228 0.009742 0.043929 -0.002951 -0.14693 0.038539 0.050543 0.043806 -0.103176 0.077863 0.064589 -0.031313 0.185702 0.088636 -0.033433 0.061237 0.048704 0.126693 -0.043044 -0.027951 0.099615 0.013106 -0.013421 -0.049288 -0.077202 -0.143889 -0.116455 -0.069884 0.011415 -0.102606 -0.179575 -0.099296 -0.096127 0.033189 0.002336 -0.053318 -0.060079 0.061525 0.075347 0.047107 0.073383 0.11455 0.090773 -0.057598 -0.089343 0.115571 0.055781 -0.115848 0.047008 0.119018 0.121093 0.178669 -0.001559 -0.17426 -0.094539 -0.060518 0.035288 0.062449 -0.107079 -0.207005 0.037668 -0.011004 -0.111026 -0.0605 -0.075872 -0.158108 0.067121 -0.002575 0.079523 0.126375 0.010322 -0.03143 -0.013072 0.126233 0.11217 -0.078909 -0.072315 -0.037829 -0.019098 -0.06354 0.050276 -0.013207 -0.105986 -0.028699 -0.016835 0.017258 0.066028 -0.051029 0.138082 -0.095938 0.086073 0.158994 -0.034363 -0.133597 0.031975 -0.056264 0.010694 -0.087179 -0.034191 0.210098 -0.05091 -0.06306 -0.175732 0.085641 0.039417 0.098183 -0.065547 0.067075 -0.131915 0.029113 -0.067704 -0.257609 0.078379 0.244944 -0.076431 -0.168032 0.124401 -0.091281 0.156015 0.193483 0.041259 0.198316 -0.011267 -0.245741 -0.064338 0.044202 0.016563 0.007493 0.19529 0.072571 -0.068206 0.047754 0.015933 0.075861 -0.048086 0.12708 0.104545 -0.122952 0.073508 0.011391 -0.097133 -0.127325 -0.033725 0.079347 0.056516 0.114619 -0.153164 -0.039173 0.125846 -0.010149 0.182839 -0.036142 -0.017951 0.044325 -0.032215 0.047293 0.091561 0.174571 0.068779 0.146106 0.049625 -0.117477 0.110899 0.229374 0.049006 0.163393 0.035553 0.070982 0.076264 -0.075051 -0.010788 -0.005509 0.059776 0.194717 -0.086608 0.063288 -0.051498 9.12E-4 0.067709 0.0149 0.100125 -0.029711 0.032246 -0.148819 -0.151198 -0.051702 0.138381 -0.016075 0.056474 -0.171532 -0.031025 -0.021377 0.09339 0.074504 -0.085092 0.182513 -0.139285 0.024327 -0.033748 0.064606 -0.214227 -0.073748 -0.092085 0.09715 -0.148908 -0.009885 -0.11653 0.140667 0.020233 0.039549 0.015778 0.008679 0.091286 -0.191819 -0.014139 0.040504 0.058404 -0.151766 -0.046526 -0.207665 0.142677 -0.073865 0.219863 -0.043786 0.169074 -0.100865 0.024083 0.085053 -0.033239 -0.014079 0.004812 0.015669 0.039025 0.047891 0.032631 0.002978 -0.10162 0.105514 -0.020208 0.020982 0.043831 0.111688 0.115432 -0.1991 0.033461 0.08925 0.136614 0.156215 0.004515 -0.064283 0.070419 -0.125114 0.032339 0.043318 -0.017584 -0.008515 0.082758 -0.046562 -0.018049 0.063328 0.006641 -0.06305 0.02163 -0.107935 -0.095984 0.064561 -0.101386 -0.058139 0.054664 -0.140826 0.11195 0.018506 0.144492 -0.009592 -0.029706 0.0271 -0.032518 -8.46E-4 -0.069899 0.102732 -0.029256 0.089988 0.014679 0.123031 -0.111275 0.033384 0.055172 0.076889 -0.024091 0.007462 0.174594 -0.057388 -0.101991 -0.05282 -0.047163 -0.043549 -0.122665 -0.036628 -0.136898 -0.030486 0.133701 -0.197176 -0.031527 -0.112178 0.045141 0.072734 -0.155311 0.143589 -0.052367 0.015882 0.020122 0.132393 -0.113628 -0.030136 0.033382 -0.170571 0.146613 0.183274 -0.150731 -0.046301 0.045593 0.043886 -0.014275 -0.053995 -0.006992 -0.230393 0.006632 -0.074893 -0.025541 0.144999 0.062245 -0.041079 0.247122 0.045925 0.159974 -0.035516 -0.041574 0.158947 0.065287 0.168141 0.099128 0.013074 0.04331 0.025567 0.158987 0.127629 -0.201567 -0.080496 -0.102749 -0.202048 -0.003066 0.060995 0.036499 0.076059 0.2063 0.129718 5.82E-4 -0.014736 0.20304 0.034094 0.057528 0.020456 -0.13779 0.115319 0.061233 0.195969 0.024254 0.164434 0.005632 -0.043393 -0.081793 -0.009257 -0.050928 -0.26828 0.069712 0.071134 0.07962 0.050185 0.042984 -0.038036 -0.088784 0.021508 0.012981 0.111258 0.020515 0.086707 -0.210166 0.018512 -0.012507 -0.042853 0.011752 -0.03821 -0.031075 -0.060496 0.119169
canyon 0.086424 -0.299483 0.25422 0.127684 0.239806 -0.06019 0.162133 -0.029228 -0.088461 0.249834 -0.28577 0.002426 -0.074295 0.076364 0.341835 0.32815 0.184475 -0.201683 0.440378 -0.271645 -0.170658 0.089054 -0.112284 -0.237021 -0.295592 -0.212176 0.128191 0.025229 0.117995 -0.038361 0.133073 -0.022407 0.189955 -0.011239 -0.16692 -0.231174 0.094888 -0.219663 -0.085576 0.413805 0.159407 0.029419 -0.203171 0.060739 0.003931 0.120165 -0.264822 -0.025574 0.188714 0.106182 -0.182064 0.413259 -0.164569 0.014915 -0.303005 0.090916 0.418757 0.088039 -0.041973 -0.101247 -0.204252 -0.213064 -0.095577 -0.00907 0.045128 0.184682 0.175212 -0.026106 0.338978 0.124489 0.36827 0.08872 0.198588 0.044652 -0.11076 0.080016 -0.130046 0.017669 -0.334699 0.117725 0.25142 0.222019 -0.153904 -0.384223 0.125345 0.072271 0.171246 -0.046625 -0.199284 0.036917 -0.098935 -0.377316 0.25328 0.06398 0.036138 0.175953 -0.121838 -0.084027 -0.006145 -0.138674 0.505525 -0.183935 -0.273959 -0.252114 0.154146 -0.013426 -0.195877 -0.071632 0.095647 0.294102 0.169826 -0.236137 0.29158 0.129192 0.158576 -0.327891 -0.114076 0.130789 -0.011872 0.027448 0.19037 0.204361 0.043853 -0.339288 0.037705 -0.012554 0.273286 0.00252 -0.305855 0.20559 0.147949 0.026419 -0.066458 -0.011588 0.315686 -0.09532 -0.218787 -0.028307 0.169226 0.228911 0.170434 -0.159108 -0.068461 -0.091831 0.051016 -0.257838 0.088611 0.167431 0.38187 0.231973 0.020577 -0.174628 -0.007201 0.22455 0.165448 -0.001094 -0.167853 -0.088733 0.146397 0.387702 -0.107236 -0.112271 0.011203 0.13449 0.021457 0.039532 -0.008132 0.251202 0.494071 0.342062 0.217689 0.206623 0.104824 0.019653 0.096309 0.054995 -0.290466 0.112333 -0.233083 0.218184 -0.190334 -0.029525 -0.321141 -0.441176 -0.134996 0.038101 -0.242627 -0.163669 0.141894 -0.136906 -0.171243 0.042788 -0.267671 0.034001 0.381309 -0.204412 0.182432 0.241668 -0.104861 -0.065831 -0.081146 0.181297 0.187455 0.225251 -0.085408 -0.009018 -0.326917 -0.044632 -0.136791 -0.248987 0.005324 0.019002 -0.143592 -0.039114 -0.568423 -0.010209 -0.04871 -0.254884 0.136139 0.185349 0.193838 0.127149 0.124289 0.22507 0.052539 -0.036126 0.03719 -0.22168 0.043502 -0.167049 -0.008438 -0.041389 0.193812 0.048215 -0.069559 -0.107122 0.068669 -0.111081 0.221368 -0.002353 0.052804 0.186593 -0.08221 -0.150633 0.156403 -0.11044 -0.090836 -0.103282 0.118607 -0.138508 -0.144258 -0.125328 0.083835 0.187915 -0.004065 -0.139218 0.451651 0.296895 0.112584 0.024263 0.462758 0.151686 -0.27369 -0.01542 0.212769 -0.095022 -0.325177 -0.341054 0.307742 0.356948 -0.119645 0.121301 0.008716 -0.027794 -0.364147 0.061416 -0.375141 -0.187314 0.057793 0.165527 0.010065 -0.165876 -0.395793 -0.024523 -0.160576 -0.014833 0.287635 0.00916 -0.038547 0.034294 -0.044855 0.222323 -0.047351 0.182641 -0.106671 -0.19684 -0.104639 0.332864 0.537514 0.239879 -0.196119 0.243607 -0.138901 0.192792 -0.031951 0.109639 0.208426 0.009669 -0.026016 0.091356 0.325182 0.299848 -0.016186 -0.170799 0.014567 0.154252 -0.03306 0.138435 -0.213581 -0.125263 0.139147 -0.197365 -0.4786 -0.036973 -0.164316 -0.115616 -0.262063 -0.236726 0.28074 -0.074867 -0.114334 -0.324175 0.026672 0.034126 0.062938 -0.054254 0.178657 0.010242 0.024067 -0.108319 -0.160944 0.095284 -0.030328 -0.406399 -0.166555 -0.091462 -0.130854 0.400075 0.072905 -0.136962 0.335376 0.323514 0.078133 0.075698 0.209422 0.040595 0.245338 -0.101346 -0.024661 0.004649 -0.064267 -0.008185 0.01654 -0.044276 -0.376939 0.182326 0.392337 0.104126 -0.305531 -0.275587 0.150011 0.396054 -0.075512 -0.310874 0.507833 0.0649 0.338289 -0.237881 -0.088883 0.570932 0.028334 0.249561 -0.131945 0.138062 -0.008923 0.097439 0.07599 -0.072966 -0.257534 0.197553 0.004434 -0.122858 0.326185 0.113267 0.136755 0.101795 0.161677 -0.46504 -0.093046 0.098066
delay 0.215515 -0.016123 0.090035 -0.099136 0.06406 0.115307 -0.157681 -0.033675 0.04919 -0.183909 -0.055949 0.073251 -0.112456 -0.081244 0.120176 -0.015745 0.007493 0.074249 -0.065156 0.152086 -0.055667 -0.198075 -0.03356 0.023671 0.126175 0.054591 0.078523 -0.06306 -0.122631 -0.069686 0.032848 0.155885 -0.113184 -0.085345 -0.044355 0.044652 0.154502 -0.016494 0.181718 -0.049781 0.176819 -0.005162 0.14172 0.073726 -0.129256 -0.119536 -0.02612 0.186565 -0.052791 0.022566 -0.226183 0.110575 0.172697 0.155225 -0.015881 0.041561 0.257503 -0.052177 -0.047129 -0.108614 0.16378 0.156897 0.084218 0.015888 -0.008377 0.02729 3.86E-4 0.0012 0.021763 -0.197518 -0.083219 0.072443 0.077496 0.043184 0.170136 -0.02578 -0.03378 -0.040757 -0.077871 -0.301528 -0.106055 0.07823 -0.218735 0.041858 -0.165579 0.012597 0.013567 0.09273 0.009235 0.206901 0.127104 0.02011 -0.165144 0.011145 -0.052066 -0.150396 -0.070791 -0.112401 -0.117313 0.057422 0.071958 0.026195 -0.036872 0.079365 0.098274 -0.163606 0.005279 -0.018085 0.115627 -0.110111 0.005648 0.035019 0.044217 0.075064 -0.127083 0.145568 0.004587 0.003287 0.112412 0.066999 -0.222945 0.090235 -0.154378 0.163514 0.086109 0.016602 -0.128743 -0.118061 0.038938 -0.036072 0.135732 -0.116072 -0.021398 0.033606 -0.029988 -0.16207 -0.02719 0.067322 -0.085214 -0.061387 0.064282 -0.024852 0.014902 0.002499 0.026713 -0.045865 0.035339 -0.031006 -0.113838 0.115614 -0.10517 -0.021772 -0.016994 -0.080298 -0.069209 0.058593 -0.268042 0.088242 -0.182138 -0.080332 -0.037074 -0.279005 0.025405 0.075459 0.164564 0.085698 -0.100265 0.069286 -0.033439 -0.014248 0.007515 -0.053382 0.039225 -0.095002 -0.164129 0.024406 -0.055848 -0.003264 -0.102144 -0.142459 -0.084875 0.017212 -0.022319 0.049938 0.124313 0.105633 -0.030741 0.161115 -0.135031 -0.147341 -0.067685 0.081732 -0.038654 -0.084429 -0.202056 0.02927 -0.053048 0.084176 -0.003694 0.005182 -0.019299 -0.191553 0.287415 -0.094507 0.308891 0.025749 0.042434 -0.025249 -0.101095 -0.198893 0.003117 0.117794 -0.114222 0.048899 -0.014625 -0.009537 0.040811 -0.077329 -0.12507 0.166613 0.045047 0.080581 -0.044405 0.012943 -0.211243 0.197618 -0.118302 0.277521 0.012623 -0.05181 -0.23148 0.111099 -0.176749 -0.005638 0.148308 -0.044271 0.078929 0.069708 0.065404 -0.057837 -0.00305 -0.156283 0.094886 -0.145608 0.059448 -0.040194 0.019382 0.15346 -0.117221 -0.085221 0.111872 -0.066422 -0.053859 -0.233844 -0.229466 0.013989 -0.282807 0.178833 -0.135306 -0.085134 0.011502 0.268485 0.054306 -0.129882 -0.052552 -0.02098 5.09E-4 0.09691 -0.080562 0.019646 -0.020009 0.10351 0.160133 0.182432 -0.15239 -0.012792 -0.023088 0.016407 0.27595 0.009761 0.106383 -0.10637 -0.044065 -0.042704 0.027409 0.206857 0.310183 0.147746 -9.04E-4 -4.26E-4 0.049614 -0.109774 -0.104376 0.130072 -0.029082 -0.038282 -0.015568 -0.007422 -0.036107 -0.02616 -0.056262 -0.005349 -0.089636 -0.054573 -0.086734 -0.063538 -0.178888 0.001165 0.027363 -0.058869 0.025174 0.156939 0.069647 -0.267612 -0.142163 0.039482 0.044553 -0.082696 -0.028305 -0.086102 -0.032701 0.015476 -0.03272 0.026323 -0.135947 0.037117 0.085481 0.017666 0.142982 0.018225 -0.152617 0.167025 0.050415 0.106594 0.00292 0.02153 -0.106707 0.116649 -0.034008 0.222687 0.019905 -0.108701 0.206406 -0.061374 0.162684 0.092716 -0.104229 -0.079404 -0.035528 0.250687 0.184548 -0.087511 -0.061893 -0.010072 -0.001396 -0.119974 0.003776 0.041743 -0.152548 0.194409 -0.162824 0.081729 -0.096325 -0.027034 -0.106339 0.118082 -0.103562 -0.01746 0.093604 0.183016 0.015121 0.208009 -0.013731 -0.039785 0.08494 0.03469 -0.08402 -0.186512 0.005102 0.229733 0.085195 0.273663 0.085056 -0.043105 0.028773 -0.105978 0.06944 0.068304 -0.053024 0.129902 0.183386 0.038035 0.044117 0.046126 0.072642 0.132569 -0.16677 0.129482 -0.023279 0.266876
size -0.064831 0.115193 0.102167 -0.182115 -0.090322 -0.216679 -0.137621 -0.012769 -0.070631 0.226376 -0.041908 -0.06272 -0.072197 -0.031332 0.231349 0.127533 0.160301 0.184087 0.084108 0.098406 0.239148 -0.104126 0.00481 -0.123029 0.122315 -0.135409 0.133248 0.099506 0.202225 0.083586 0.158385 -0.092581 -0.011382 0.02519 -0.202897 0.033162 0.141807 0.087832 0.13381 -0.127627 0.128658 -0.045156 -0.132815 -0.02541 0.114416 0.05104 0.234703 -0.057153 0.027078 -0.018584 0.005282 -0.011202 -0.094942 -0.023699 0.118775 -0.04102 0.075197 -0.006195 0.072137 0.146855 0.007392 -0.025428 -0.132579 -0.027118 0.041545 0.105045 -0.018481 0.013707 -0.023672 0.236117 0.092121 -0.094375 0.159805 0.02028 0.111263 -0.012865 0.022718 0.025937 0.121741 0.047366 -0.141791 -0.191787 -0.008609 0.037827 -0.020471 0.062271 -0.195089 -0.094838 -0.049547 0.006461 -0.139818 0.043136 -0.094795 0.031701 -0.137951 0.043666 0.022903 -0.003603 -0.101137 -0.079922 -0.023146 -0.024486 -0.069038 -0.322388 0.098859 -0.120406 0.138209 -0.157251 -0.080117 -0.103375 0.122203 -0.034132 -0.228055 0.045348 0.038484 0.045763 -0.158609 0.017743 0.073913 0.117653 -0.055573 0.157662 -0.055441 0.130207 -0.097422 -0.031575 0.057167 0.06133 0.112721 -0.030517 0.106573 -0.074795 -0.083722 0.133841 0.083276 -0.019974 -0.222781 -0.001281 -0.054981 -0.096758 0.078425 0.078653 -0.180829 0.025481 0.219691 0.139618 0.117122 -0.112053 0.047382 -0.047513 0.050105 0.253646 -0.112631 0.002817 0.102215 0.110853 0.186777 -0.014488 -0.018136 -0.108682 0.115199 -0.059527 -0.175138 0.006629 0.122092 0.030194 -0.197681 0.097398 0.09807 -0.009972 0.157004 -0.057883 0.062411 -0.009763 -0.040922 0.178443 0.145743 -0.01529 0.005202 0.03802 0.010762 -0.148765 -0.14111 -0.201389 -0.215042 0.305053 -0.051414 0.070923 -0.172067 -0.243209 0.007614 0.041245 0.157258 0.154138 0.220411 0.031824 -0.066691 -0.057843 0.045034 -0.073862 -0.225656 0.030528 0.129514 0.022888 0.015704 9.09E-4 -0.003393 -0.337005 -0.010778 0.001635 -0.012247 -0.069219 -0.057462 -0.125527 -0.076431 -0.136142 0.054043 -0.303429 0.065648 0.015596 0.005846 -0.145262 -0.031378 -0.00498 0.009295 0.160282 0.063408 -0.057898 -0.062304 0.128633 0.036321 -0.010911 0.153648 -2.56E-4 -0.059039 -0.03335 0.066121 0.052811 0.144801 -0.012712 0.257963 0.132924 -0.062963 -0.096309 -0.108083 0.082598 -0.041815 -0.079441 -0.089528 -0.177897 -0.132466 -0.191778 0.102358 -0.028256 0.078821 -0.036737 0.111791 0.098874 -0.084256 0.018698 0.079594 0.066793 -0.002283 -0.025782 0.106712 0.063557 0.013163 -0.11474 -0.139103 0.229822 -0.021055 -0.122608 0.187194 0.058018 0.168486 0.04194 -0.03938 -0.061915 -0.179736 0.05027 -0.087953 -0.052803 -0.154016 0.093906 -0.105052 -0.08647 0.074656 0.019005 0.087209 0.014745 -0.157482 0.083788 -0.107909 0.176221 0.314601 0.047537 0.035965 -0.067671 -0.19832 0.078303 0.053366 0.061637 0.192163 0.075214 -0.029975 -0.15169 0.082097 -0.129921 0.109765 0.001418 0.184558 0.062065 0.07158 -0.123783 0.114993 0.114182 0.040617 6.63E-4 0.060425 0.156356 -0.124344 0.120106 0.236287 0.115652 -0.017899 -0.047288 0.003312 -0.079724 -0.028483 0.126721 -0.007567 -0.235082 0.134021 -0.040269 0.282516 0.066632 -0.056058 -0.106835 -0.086807 0.138989 -0.044448 -0.034901 0.208949 0.026351 0.189052 0.004434 0.086071 -0.024144 0.094886 0.182192 -0.010908 -0.073072 0.106589 0.082322 -0.139146 0.155023 -0.186847 -0.019374 -0.15802 0.008555 -0.039981 0.091254 -0.101797 -0.138169 -0.151366 0.119824 0.076569 0.164281 -0.073392 0.205031 0.024755 -0.15745 -0.039762 0.061689 0.022924 0.047864 0.019277 0.029217 -0.08128 -0.053418 0.009766 -0.043671 -0.052222 -0.029414 -0.058952 -0.014551 -0.113031 -0.115639 -0.055993 0.063221 0.003269 0.083411 -0.003262 0.075372 -0.033699 -0.169453 -0.024454 -0.014247 -0.122576 -4.66E-4
peace 0.053285 -0.036115 0.282804 -0.206695 -0.053161 0.396927 0.060505 -0.0722 -0.057395 -0.053853 -0.422631 0.116677 0.439621 -0.146013 0.12022 -0.270827 0.086225 0.130845 -0.154148 -0.173322 -0.248208 -0.277277 -0.210044 -0.133984 -0.00741 -0.117849 0.187547 -0.025782 0.292538 -0.079903 0.187446 0.055547 0.030117 -0.017184 0.090794 0.049786 0.085115 -0.282304 0.033119 0.014101 -0.23591 0.13649 -0.042474 0.099507 -0.24904 -0.023838 0.27288 -0.266364 0.049857 0.043784 0.05559 0.249676 0.049423 0.472304 -0.285936 -0.114834 -0.074787 -0.009936 -0.043131 -0.18094 0.073724 0.102848 0.200061 -0.117162 0.05811 -0.488851 0.08816 -0.003975 0.02062 0.170619 0.032003 -0.184498 0.059565 0.113749 -0.053438 0.288303 0.111278 -0.124556 0.184049 0.047154 -0.280117 -0.059328 0.018305 -0.025736 -0.187224 0.162775 0.051566 -0.289026 0.049409 -0.004357 -0.157633 -0.063817 0.184398 -0.135101 0.253515 0.050211 0.00436 -0.003957 0.055418 -0.325424 0.344728 0.097002 0.309783 0.009888 -0.211374 0.25762 -0.004422 -0.046969 -0.16067 -0.211903 -0.150879 0.218275 -0.017161 0.094792 0.191549 -0.037781 0.046314 0.201162 0.065338 0.227769 -0.053227 0.046274 0.163267 0.013841 -0.037364 0.286382 0.094507 -0.094623 -0.223155 0.047317 -0.558881 -0.208719 0.038898 -0.016789 -0.117788 0.075269 0.319948 -0.039027 -0.12133 0.239238 0.25381 -0.036154 0.120555 -0.32013 0.064341 -0.030665 0.036741 -0.145051 -0.11468 -0.031993 -0.100182 0.196436 0.097471 0.395654 0.030864 0.06553 -0.005507 0.0349 -0.304747 0.005604 -0.471039 -0.183758 -0.13768 -0.109077 0.090212 -0.214988 0.058247 0.202616 0.15967 -0.030517 -0.199148 0.080624 0.417105 0.016338 0.025125 -0.017695 0.187052 -0.091338 0.021249 -0.147783 0.098082 0.028952 0.012297 0.125091 0.109554 0.038882 0.018756 0.01848 -0.043219 -0.049849 -0.068259 0.174365 0.089192 0.108193 -0.133659 -0.101697 -0.336486 -0.026976 -0.340262 -0.028757 -0.116743 -0.002757 0.141706 -0.251429 0.511374 -0.134153 -0.13057 0.363334 -0.045699 0.069797 0.19359 0.018092 0.022713 0.152111 0.264453 -0.07486 0.148885 -0.158574 0.009891 0.122872 -0.024608 -0.06329 -0.008452 0.078525 -0.068422 0.26757 -0.230478 -0.10706 0.214443 -0.044817 -0.456773 0.245389 0.0354 -0.0071 0.158611 -0.342646 0.079463 0.06775 -0.093537 -0.174929 -0.167994 0.112687 0.237162 0.13929 -0.105224 0.112925 0.129882 0.309037 0.164647 0.121675 -0.223192 0.1451 -0.016198 -0.145125 -0.277898 -0.090401 -0.098298 0.020249 0.033712 -0.11666 0.188366 -0.034216 -0.319784 0.436802 0.129591 0.064998 -0.219206 -0.025451 0.313193 -0.401205 0.127884 -0.223379 -0.072703 0.031037 -0.178993 -0.019492 0.187548 0.043346 0.080102 -0.0059 -0.149577 -0.07631 -0.111687 -0.410783 -0.072086 0.031694 0.365517 0.038635 0.120981 -0.096583 0.147155 -0.251477 -0.178703 -0.236558 -0.013988 0.128793 0.153064 -0.228181 -0.10634 0.086062 0.478197 0.15212 -0.221784 0.265631 0.130561 0.013815 -0.140119 0.08177 -0.081286 -0.037189 -0.175737 -0.033724 -0.090605 -0.444809 0.136866 -0.216414 -0.218082 -0.068859 -0.182536 0.242931 -0.041466 0.131952 0.178896 0.124246 -0.074929 -0.032238 0.037075 -0.161239 0.071216 -0.106709 0.095219 0.156837 0.070549 0.107096 -0.15351 -0.070761 -0.061596 0.002956 0.019496 -0.04229 -0.201588 -0.184423 -0.382313 -0.055175 0.226354 0.096074 0.145957 -0.039272 0.094883 -0.059547 -0.133983 0.208758 -0.037259 -0.052141 0.245204 -0.353961 0.01972 -0.097608 -0.071358 -0.175661 -0.105909 -0.066979 0.062196 -0.304326 0.102366 -0.162859 -0.075875 0.225251 0.261187 -0.203732 0.079417 0.001261 0.310856 -0.533334 -0.031314 0.249504 0.147441 0.00573 -0.115679 0.181636 -0.194059 -0.257211 -0.081186 -0.270752 -0.401918 0.08928 -0.068429 -0.035027 0.179954 0.143955 -0.058692 -0.053216 0.190309 -0.044185 0.024939 0.00446 0.021982 -0.221537 0.154686 -0.27994
science -0.081723 -0.146343 0.174889 -0.226625 0.140521 0.100444 0.048174 0.068993 0.202724 -0.026544 0.084705 -0.215177 -0.161204 0.076702 0.078468 0.102687 0.007256 -0.003962 -0.1363 0.186936 0.17233 0.093302 -0.139489 -0.190892 -0.071707 0.056762 0.202665 -0.052537 -0.132554 0.096207 -0.025768 -0.011689 -0.099346 0.145328 0.198107 0.142296 0.079599 -0.138251 0.062999 -0.058573 0.002127 0.282723 0.100431 0.153345 0.229896 -0.038061 0.110591 -0.140786 -0.188562 -0.07547 0.0637 0.032827 0.258056 -0.220697 -0.181517 -0.073104 -0.099316 -0.049344 -0.180065 0.084398 0.175284 -0.039772 0.089447 -0.158168 -0.115493 -0.01158 0.007194 -0.020375 -0.043796 -0.189121 0.007018 0.145694 -0.026512 -0.151229 0.070964 0.106613 -0.046349 0.125567 0.029332 -0.144234 -0.092505 -0.117409 -0.079332 -0.016691 -0.085677 0.093929 0.127664 -0.188208 -0.091291 -0.08266 -0.158559 0.075523 0.225559 -0.099076 -0.135615 0.114608 -0.062376 -0.282552 0.102654 -0.213513 -0.061932 0.124785 0.032968 -0.117814 0.03321 -0.017615 -0.114167 -0.012532 0.031336 0.030885 0.009892 -0.0111 0.212395 -0.211953 0.195349 -0.040963 -0.1274 -0.119049 0.120032 0.230069 0.137363 0.200683 0.104493 0.090866 0.10296 0.129565 0.130049 0.153753 0.175742 0.103339 -0.264979 -0.139651 -0.012613 0.033445 -0.038921 -0.074698 0.046592 0.003956 -0.014521 0.050717 0.356799 0.184687 0.183074 0.213952 0.091031 -0.068468 -0.134754 -0.204111 0.299526 0.028029 0.058756 -0.152198 -0.090051 -0.171486 0.229205 0.269009 -0.053532 -0.126408 0.181735 -0.015665 -0.08698 -0.216813 -0.111605 -0.07887 0.102295 -0.085009 0.26134 0.148084 -0.09603 -0.139694 0.080752 -0.024334 -0.183873 -0.210095 0.121633 -0.093708 0.33338 0.229905 0.237263 -0.081207 0.001185 0.112016 0.17019 -0.160687 0.057846 0.212004 0.155335 -0.01875 0.058002 -0.088163 -0.199753 0.011395 -0.008699 -8.39E-4 -0.093066 -0.015576 0.072657 -0.2172 -0.251087 -0.021345 -0.116531 -0.005005 0.124035 0.144806 -0.100348 -0.184788 -0.085056 -0.126274 0.191977 0.031673 0.051213 -0.283707 0.10085 -0.319922 -0.108654 -0.106235 0.043621 0.046915 0.119624 0.064324 0.006978 0.047801 -0.014942 0.042629 -0.185324 -0.117294 -0.051614 0.272389 0.015599 -0.092487 -0.213675 -0.205388 -0.061749 -0.126148 0.181635 0.023184 0.197566 0.007552 0.11597 -0.243934 -0.076875 -0.01047 -0.081451 0.053557 0.035368 -0.004959 0.186633 -0.327261 0.151859 0.018851 -0.143181 0.098343 -0.077734 0.025189 -0.054942 -0.241152 0.214594 -0.00233 -0.09992 -0.007979 -0.124056 -0.001477 -0.206579 0.040017 -0.104997 -0.030399 0.029331 -0.158358 0.032472 -0.044064 -0.038008 0.278118 -0.038819 -0.019411 0.215161 -0.114704 -0.211826 0.048941 0.183986 0.158838 0.091883 2.18E-4 0.328059 0.048564 0.171996 0.102316 0.076595 -0.253812 -0.447083 0.15916 0.069909 -0.144531 -0.017184 -0.255661 -0.053237 -0.216767 0.108349 -0.2405 0.071582 0.149748 -0.103235 0.048325 -0.11996 0.010048 -0.002468 -0.061763 -0.251309 0.188659 -0.124074 0.191821 -0.022825 -0.052921 -0.167784 0.036589 0.147906 -0.109911 -0.010405 -0.03132 0.034623 0.03565 -0.204345 0.093211 0.364385 -0.100761 0.290643 0.164416 -0.024969 -0.008811 0.195919 0.029264 0.212161 -0.03451 -0.200552 0.043891 0.290162 -0.08663 0.043508 0.072447 0.027736 0.002711 0.032188 0.063743 0.046109 -0.010179 0.367026 -0.105755 0.065786 0.043613 0.053051 0.099706 -0.087252 -0.150851 0.301903 -0.19906 0.004217 0.09798 -0.018596 -0.034243 -0.116013 0.144758 0.094725 -0.08781 0.020184 0.034728 0.193208 0.085833 -0.012986 -0.002754 0.132905 -0.014628 -0.10458 0.109845 -0.008063 -0.157919 0.140954 -0.156785 -0.144079 0.076148 -0.072777 -0.06755 -0.223173 -0.030169 -0.019777 0.010099 -0.067128 -0.268023 0.140726 0.124704 0.091139 0.011658 -0.165311 0.029071 0.208734 0.16598 -1.28E-4 0.158872 0.016726 -0.041627 0.254062 0.01104
dawn -0.0371 0.024383 0.316352 -0.061776 -0.239862 -0.049238 0.090335 0.041253 -0.082893 0.059181 0.034521 0.291101 0.023502 0.108197 0.212981 0.189365 -0.097803 0.112475 0.016164 -0.02158 0.085657 0.1934 -0.020291 0.046724 0.053281 -0.063909 -0.040143 -0.14852 -0.136114 -0.07272 -0.130389 -0.002553 -0.035758 0.153648 -0.055803 0.057396 0.131596 0.053994 -0.17626 -0.098965 0.128412 0.03748 0.257247 0.152758 -0.213902 0.289203 0.037615 0.121429 0.05367 0.131689 0.168497 0.241712 -0.08077 -0.002313 -0.038329 0.182638 -0.028501 -0.009414 -0.124981 -0.008686 0.104166 0.1406 0.127093 -0.181263 0.00654 -0.066013 0.013805 -0.223865 0.225951 -0.008361 0.351779 0.080112 0.039451 0.034581 -0.054315 0.100145 0.087603 -0.022571 -0.243592 0.005773 0.108169 -0.076404 0.023789 -0.101227 0.030571 -0.11204 -0.160724 -0.063399 -0.1704 0.146981 0.008863 -0.182364 0.124775 -0.017076 0.157583 0.182502 0.309254 0.218488 0.031435 -0.033968 -0.118804 -0.363514 0.092908 -0.185756 0.073939 -0.068334 -0.027973 0.188797 0.035779 -0.13649 0.072856 -0.079743 -0.150484 -0.131659 -0.028158 -0.023274 0.159115 0.059837 -0.165481 -0.253228 0.029334 0.119844 -0.086905 0.121394 -0.107719 -0.122873 0.18671 0.082757 -0.254415 0.147225 -0.00842 0.008764 -0.255749 -0.110324 0.204381 0.064231 0.07226 -0.046557 -0.05707 0.140166 0.313335 0.096168 0.228515 -0.406031 0.104832 -0.446369 0.135955 0.270862 0.10099 -0.046368 -0.004443 -0.160327 -0.208352 -0.357344 0.160327 -0.122517 0.036485 0.051292 0.006398 0.1894 0.055505 -0.068464 -0.159719 0.026974 0.158864 -0.024765 0.129279 -0.022591 0.187042 0.016106 -0.019475 0.06858 0.274015 0.099612 -0.026109 -0.042534 -0.102761 0.049261 0.167524 0.111158 0.155635 0.024985 0.026781 0.126477 -0.103653 0.186099 0.050295 0.130446 0.061156 0.039993 0.018044 -0.007197 -0.241335 -0.078228 0.011683 -0.063534 -0.059591 -0.017472 -0.11369 -0.166252 -0.027941 0.001582 0.03322 -0.01879 0.003986 -0.221718 -0.059376 -0.074295 0.182392 -0.117955 -0.015356 0.2414 -0.069288 -0.043083 -0.153684 0.056608 0.004462 -0.024865 0.015812 -0.036063 -0.106722 -0.324013 0.05147 0.019256 -0.153356 0.10675 0.160383 0.123571 0.163021 0.105643 0.18621 0.189543 -0.161242 0.314073 -0.005403 -0.150914 0.305942 0.05892 0.09533 -0.090672 -0.035449 -0.028759 0.028202 0.010759 -0.015664 0.129133 8.24E-4 0.066235 0.002241 0.083329 -0.235166 -0.072903 -0.087414 0.077151 -0.206745 -0.05522 -0.179054 0.104409 -0.163665 -0.019811 -0.022545 0.276606 -0.073664 0.318844 0.107886 -0.165801 0.274692 -0.231765 0.304333 0.341787 0.01297 0.103394 -0.06908 0.215294 0.086907 0.031465 -0.052208 0.061862 0.36714 0.192016 -0.043264 0.042382 -0.055114 0.142318 -0.140439 0.087607 0.227715 -0.061413 -0.029874 0.132643 -0.191945 0.145159 -0.188475 -0.221256 0.029512 0.012213 0.035655 0.030867 -0.021043 -0.022284 0.009967 -0.076305 -0.146541 0.069237 -9.44E-4 0.128486 -0.114541 0.098171 -0.208266 -0.174021 0.03683 0.039071 0.142396 -0.144822 0.109802 -0.271157 -0.418665 0.072717 -0.219102 0.063433 0.12084 -0.055992 -0.088247 -0.088168 -0.156964 -0.058692 0.203244 -0.050748 -0.050393 -0.017336 -0.139432 0.041291 0.061475 0.152534 -0.023313 0.071774 0.064881 -0.069349 -0.04627 -0.193229 -0.059401 0.038787 0.302727 0.021397 -0.054715 -0.220497 -0.078515 -0.098498 -0.285461 0.144195 0.130744 0.054049 0.036683 -0.113273 0.125384 -0.178061 0.070526 -0.269052 -0.090784 -0.039113 0.196737 -0.073856 -0.035079 -0.114479 0.13697 -0.017325 0.110874 0.181003 -0.103666 -0.098131 0.0269 -0.075753 -0.245472 0.022599 0.032745 0.111948 0.007092 0.072962 -0.173949 0.171893 -0.098656 -0.046735 -0.050436 0.018613 -0.099885 0.001061 -0.007916 -0.054675 0.012859 0.240424 0.131546 -0.11956 -0.087438 -0.026136 0.150663 0.013261 0.144633 -0.209919 0.090744 0.123821
brother -0.154584 0.13149 -0.02503 -0.064294 -0.085734 -0.050438 -0.152382 -0.039652 0.070481 -0.018161 0.109324 -0.046765 0.006077 0.003045 0.431734 -0.072605 -0.035627 -0.104192 -0.076626 0.010068 0.204244 0.021114 0.145102 0.252734 0.066589 0.035299 -0.016026 -0.177932 0.042573 0.071207 0.062697 0.013781 0.123008 0.049766 0.149458 -0.081359 0.197096 0.003902 -0.045996 0.129167 -0.035334 0.020966 0.036841 0.068011 -0.005574 0.179135 -0.107931 0.023636 0.052635 -0.078549 0.253968 0.061121 -0.009454 0.044476 0.11812 -0.052537 -0.249023 -0.109378 0.080461 -0.083501 0.03245 -0.113749 0.048391 -0.11159 -0.072967 -0.093048 0.12478 0.003411 -0.065109 0.078076 0.120643 -0.032007 0.136575 0.013128 0.019682 -0.067684 -0.149182 -0.107221 -0.177187 0.190583 -0.211448 -0.092997 0.107731 -0.195309 0.260699 -0.069409 0.205709 -0.088239 0.010309 0.30294 0.191968 0.004221 0.029693 0.331627 -0.21786 0.049414 0.067143 0.166089 0.109717 -0.146712 -5.31E-4 -0.256823 -0.137642 0.198949 -0.01978 -0.022456 -0.031633 0.051715 -0.213566 -0.040691 -0.175652 0.061045 -0.016278 -0.031371 -0.28701 -0.113261 -0.08695 0.011353 0.173288 -0.037952 0.178804 -0.013273 -0.113457 0.060209 0.023178 0.00733 0.11107 -0.267964 0.145268 -0.062813 -0.009677 0.228052 -0.004789 -0.294821 0.051189 -0.045413 0.247482 -0.012618 0.12645 0.222434 0.031456 0.001655 0.066127 -0.102728 0.168789 0.184597 -0.056786 -0.086165 -0.03502 0.005719 0.132791 -0.118423 -0.086912 -0.1364 -0.207395 0.01218 0.015208 0.133756 -0.01954 -0.061073 0.197024 -0.048329 0.41019 -0.217822 -0.001562 -0.188173 0.072647 -0.067423 -0.061568 -0.098353 -0.066558 0.088845 0.171204 0.090118 0.072212 -0.008216 -0.090069 0.180079 0.364868 -0.126486 -0.137823 0.06216 0.109082 0.123184 -0.085374 0.096448 0.045681 -0.094509 0.136436 -0.227895 -0.008215 -0.036372 -0.065597 0.050289 -0.112586 0.147016 -0.001265 0.207411 -0.106058 0.010699 0.234143 0.021195 0.203023 0.020352 -0.0603 0.053493 -0.015471 0.076127 -0.089765 -0.136652 0.006998 -0.196523 -0.153015 0.026458 0.221621 0.013072 -0.105391 0.05892 0.322067 0.072752 -0.015862 -0.03626 0.03072 -0.019486 -0.073127 -0.015198 -4.18E-4 -0.056236 -0.188643 0.019313 0.131217 0.019993 0.235693 0.128597 0.052185 -0.009079 -0.005494 0.007602 0.003995 0.140043 0.029632 -0.002986 -0.208152 0.05698 -0.094584 -0.037698 0.164429 0.118309 0.111689 -0.188428 0.05414 0.255253 0.080514 0.241002 -0.191722 -0.205781 -0.156301 -0.236577 0.134648 0.02437 0.008803 -0.002659 -0.096889 -0.03007 -0.140372 9.57E-4 -0.304043 0.191592 0.299919 0.192886 0.097558 -0.390293 -0.187422 0.061964 -0.031046 -0.132378 0.304257 0.247718 0.2025 -0.02928 -0.001474 -0.16799 -0.017507 -0.399177 -0.069084 -0.221664 -0.20886 -0.046148 -0.047347 0.186111 -0.043349 -0.260699 0.068944 0.025986 0.089715 -0.003224 -0.075858 0.006023 -0.17564 -0.097889 -0.034717 -0.04464 0.037093 0.101672 -0.109698 0.094168 -0.126914 -0.068778 0.177291 0.052636 0.010504 -0.04215 -0.010333 0.227508 0.115013 -0.014593 -0.285797 -0.041166 -0.114369 0.111488 -0.158514 0.141987 0.192476 0.062176 0.129888 -0.276494 -0.046303 -0.054604 0.031746 -0.214978 -0.063217 -0.04711 0.134603 0.181595 0.021381 -0.121639 -0.099679 -0.048574 -0.051695 -0.18549 0.210646 -0.132049 0.115877 0.056859 0.007387 0.014198 0.142581 0.153456 -0.094019 0.007926 -0.064728 -0.072329 0.072307 -0.206709 -0.148248 -0.023424 -0.098302 0.091687 -0.092917 0.348827 -0.115096 0.199953 -0.184872 0.213182 -0.01276 0.124938 0.013345 0.087464 -0.220009 -0.194427 0.245562 0.123124 -0.090007 0.117672 -0.029439 -0.301343 0.042473 0.106907 0.111652 0.115088 0.136138 0.001605 -0.149416 -0.26935 -0.208766 0.042432 -0.058006 -0.078704 -0.083426 0.145244 -0.132102 0.133515 0.406739 -0.146722 0.006347 0.08148 1.2E-4 0.198124 -0.169257 -0.090995
wine 0.013989 0.016556 0.331215 0.12807 0.061606 0.053134 0.077691 0.248862 0.292899 -0.355667 -0.186828 -0.232484 0.179465 0.011586 0.295209 0.270951 -0.051088 0.034073 0.147939 -2.33E-4 0.080059 -0.04337 0.044165 -0.209165 0.149457 -0.042398 0.186292 -0.096911 -0.007486 0.322892 0.135023 -0.18357 0.010377 0.018999 -0.016137 -0.100328 -0.01165 -0.047358 0.314504 0.217019 -0.110279 0.172695 -0.309224 0.153306 0.240176 0.366006 0.203718 -0.190988 -0.011547 0.030837 0.156411 0.22786 -0.170508 -0.294887 -0.228956 0.024157 0.051083 0.081904 0.068521 -0.217731 0.156872 -0.051834 -0.121514 -0.04072 0.111305 -0.1349 0.130241 0.199554 0.090545 -0.012928 0.077541 -0.093117 0.366414 0.014336 0.068282 0.123357 0.197454 -0.11674 -0.090269 0.161848 -0.247454 0.064925 0.338071 -0.185617 0.093638 0.224822 0.046524 -0.040392 -0.148831 -0.16891 0.097002 -0.107827 0.204891 0.237459 0.241948 0.099784 0.160515 0.139173 -0.018726 0.036293 -0.07562 0.032758 -0.088505 -0.259139 -0.090964 -0.101976 -0.178825 -0.224963 -0.165869 -0.06987 -0.096603 0.018495 -0.011252 0.121447 0.043009 -0.030216 -0.151438 -0.096564 -0.192985 0.110669 0.155575 0.086134 0.104541 -0.08926 -0.14712 -0.026113 -0.049678 -0.056214 0.225011 0.084991 0.023496 -0.268627 0.305952 -0.334942 0.225788 0.075232 0.035387 -0.062168 -0.037588 -0.134071 -0.090569 0.036752 -0.002247 -0.203925 -0.028111 0.269631 -0.126197 -0.073261 -0.055463 -0.066849 0.024638 -0.374347 -0.030557 -0.306067 0.227336 -0.091572 -0.071336 -0.127774 0.070584 0.336027 -0.340058 -0.051529 -0.23612 -0.192221 0.153191 -0.17664 0.152519 0.045503 -0.010613 -0.303838 0.048292 0.143477 -0.028769 0.151946 -0.024011 0.013298 -0.158702 0.108095 -0.00739 0.137746 0.088298 0.135828 -0.103169 -0.123185 -0.068816 0.412627 -0.41842 0.041723 -0.173289 -0.101316 -0.291671 0.065647 0.020541 -0.076581 0.063609 0.102262 0.017555 -0.023848 0.157128 -0.181942 -0.166144 -0.070885 -0.071073 -0.117687 -0.114306 0.226314 -0.012693 0.013251 0.114848 0.104251 -0.202648 -0.025235 0.030463 0.088048 -0.412172 0.002676 0.173466 0.019119 -0.242925 -0.084237 0.080192 -0.168585 0.165019 -0.124682 0.205244 0.06817 -0.009623 -0.20071 0.300853 0.160786 -0.12892 -0.11151 0.070955 0.056361 0.09597 0.353089 -0.311694 0.03494 0.021461 -0.10883 0.404634 0.030958 -0.303793 -0.162474 -0.041583 0.095265 0.035334 -0.060645 -0.109066 0.393509 0.069891 0.025631 -0.182957 -0.112215 -0.226794 0.061768 -0.089794 0.061355 0.042093 -0.045964 -0.089695 -0.108766 0.134447 0.313866 0.062306 0.0737 0.044476 -0.290278 0.092832 0.045709 0.163158 0.170299 -0.248617 0.161479 -0.222433 0.269737 -0.291092 -0.099754 0.096073 0.207353 0.100014 0.033529 0.032901 0.032295 0.13754 0.20516 0.0944 0.203393 0.118287 -0.0024 0.205867 0.057679 -3.63E-4 0.15324 0.078926 0.163906 0.050808 -0.17733 -0.119777 0.018868 -0.240868 -0.002947 0.003186 0.053105 0.140027 -0.009531 0.099981 0.035425 -0.269045 0.054294 -0.25386 -0.051995 0.150312 -0.189076 -0.272141 0.30167 0.035189 -0.337457 0.10749 -0.117363 -0.009391 -0.062802 0.048853 -0.186701 -0.189276 -0.186913 0.153534 0.191438 -0.176819 0.200608 -0.481401 -0.090957 0.052172 0.036752 0.071896 -0.33791 0.022181 0.077189 0.233938 0.182641 -0.039256 0.141401 0.326633 -0.053904 -0.34409 -0.230735 0.012575 0.179649 -0.110594 0.095032 -0.178273 0.035942 -0.163786 -0.300919 -0.112425 0.065854 0.179429 0.17436 -0.06893 -0.262771 0.110486 -0.019625 0.078454 -0.061017 -0.148998 0.046922 0.386252 0.297359 -0.291235 -0.318619 0.078901 -0.002826 0.129725 -0.043514 -0.104988 0.089066 -0.213599 0.251225 -0.143543 -0.024405 0.230702 -0.08051 -0.095574 -0.308439 0.05919 0.304449 -0.042538 -0.331627 -0.191587 -0.152332 0.175497 0.113716 0.107546 0.190852 -0.073307 -0.156517 0.128457 0.186078 0.019806 -0.138571
object 0.024144 -0.061203 -0.021376 -0.032249 0.08411 -0.258252 0.054697 -0.081393 -0.027732 -0.047227 -0.041453 0.083085 0.083128 0.036756 -0.004668 -0.034737 0.067863 0.045899 -0.072863 0.145891 -0.079239 0.004046 -0.115039 -0.160637 -0.017746 -0.201742 0.044536 0.046572 0.207909 0.031492 0.104529 -0.028582 0.010226 0.096278 -0.075116 0.136039 0.076131 0.162384 0.213275 0.06838 0.026061 0.046816 0.172153 0.171244 -0.082469 0.019356 0.109533 -0.066498 0.043145 0.101188 -0.001808 0.07479 0.119262 -0.112741 -0.013476 -0.027665 0.194513 0.080702 -0.161116 -0.016338 0.219907 -0.077166 0.200508 0.011967 -0.160127 0.175561 0.195101 -0.006832 0.115862 -0.224112 -0.007618 -0.237188 0.131736 0.003624 0.04843 -0.024423 0.071003 -0.103005 0.023728 -0.061974 0.034228 -0.014812 0.057156 0.030812 -0.002213 9.73E-4 0.019322 0.090459 -0.128078 -0.054539 -0.025318 0.032405 0.047416 -0.197618 0.114673 -0.082444 0.070428 -0.162476 -0.191948 0.044465 0.15836 -0.094058 -0.003976 -0.115372 -0.05902 -0.095842 0.026913 -0.05594 -0.064827 0.23133 0.087018 0.005905 0.140333 -0.181997 -0.041044 -0.039223 0.019233 0.068525 0.064491 0.156409 0.099397 -0.090452 -0.150606 -0.095097 -0.086849 0.054164 0.010293 0.06532 -0.063283 -0.03564 -0.067969 -0.071511 -0.063593 0.019654 -0.043748 -0.098626 -0.067599 0.042196 0.239096 0.017851 0.224878 -0.020843 0.091588 -0.163205 -0.017134 0.088876 -0.045078 -0.068156 9.39E-4 0.028221 -0.007321 0.076824 -0.127521 -0.180887 0.100769 -0.025886 -0.103293 0.042075 -0.1607 0.043351 0.106446 0.054536 0.183222 0.109214 0.061872 -0.079847 0.048668 -0.007883 0.024864 7.49E-4 0.076211 0.011922 0.071711 -0.147017 -0.011813 0.042167 0.011911 0.192141 0.109657 -0.025327 -0.022937 -0.096529 0.088141 -0.061242 -0.048745 0.100517 -0.04632 0.079687 -0.044688 -0.307183 -0.08727 -0.023301 -0.157645 -0.013793 0.162849 0.119141 0.164737 -0.015078 0.005197 0.014481 -0.077495 0.038233 0.162941 -0.075796 0.086501 0.143832 -0.201368 -0.050736 -0.138155 0.082744 0.050911 0.002104 0.074066 -0.167561 -0.141901 -0.037108 0.084804 -0.071542 0.160503 0.065937 -0.08594 -0.15796 -0.1948 0.009904 -0.010498 -0.042568 -0.174793 -0.029467 -0.08419 0.100454 -0.09428 -0.083115 0.147578 -0.054705 0.118245 -0.228418 -0.156896 0.036235 0.12171 -0.175259 -0.049222 0.03887 0.04839 -0.099788 -0.196422 0.144791 0.086763 0.004274 0.07625 -0.17906 0.007888 -0.130864 -0.100622 0.00844 -0.139603 -0.190196 0.027999 0.029507 -0.05982 0.194693 -0.044365 0.158372 -0.082762 -0.074052 0.092628 0.080646 0.143779 0.021123 -0.076453 -0.159924 -0.010312 -0.024713 0.020068 0.13484 0.161508 0.174654 -0.012853 0.011699 0.08264 -0.052258 0.170739 -0.007362 -0.045112 0.001727 0.057312 0.090294 -0.047531 -0.113675 -0.053623 0.127203 -0.192308 0.044032 -0.096316 -0.112849 0.151085 -0.113106 0.109811 0.239723 -0.074579 0.044893 0.03186 -0.058797 -0.078938 -0.06779 -0.082751 0.015606 0.176152 0.01532 -0.087827 0.045097 0.198504 -0.107205 0.043591 -0.035892 0.180657 -0.032073 0.052182 -0.083811 0.020979 0.099579 -0.155926 -0.053056 0.099704 0.157463 0.004768 -0.088592 0.050733 -0.072675 0.170373 0.193908 -0.126573 -0.147829 0.077848 0.026039 0.111426 0.031029 0.016874 -0.167523 -0.138039 -0.129298 0.17887 0.014491 0.349007 0.056174 0.206756 -0.053075 0.019938 0.180251 0.012845 -0.016434 0.019289 -0.08536 0.169328 0.006461 0.009593 0.262026 -0.162158 -0.11595 0.082984 -0.257284 -0.017803 -0.027717 -0.032118 0.063098 -0.157864 0.122721 0.112599 0.224519 0.027852 0.003373 0.055927 -0.090489 -0.034255 -0.075759 -0.031796 -0.024197 -0.041435 0.00171 -0.188575 -0.119706 0.159526 0.078089 0.027494 0.031599 -0.164444 -0.259462 0.065126 -0.035598 0.05362 0.071398 -0.098829 0.066579 -0.009425 -0.061499 -0.042379 -0.081639 0.076526 0.042853 -0.230874 0.120141
attitude -0.139796 -0.149878 0.126648 -0.109414 0.011034 -0.082095 -0.034147 -0.016949 0.056853 -0.0247 -0.147838 -0.129565 0.123568 0.022472 0.062404 0.056654 -0.045345 -0.033721 -0.012824 -0.091165 0.024888 0.187028 0.031396 0.001941 0.1131 -0.163744 0.141425 -0.125755 0.131839 0.037982 0.081784 -0.015719 -0.023235 0.063814 -0.214377 0.355649 0.057057 0.208662 -0.086153 0.155649 -0.106708 -0.186441 -0.037015 0.263883 -0.03722 0.074447 0.137632 -0.199861 -0.108059 0.046833 0.076211 -0.01444 -0.017767 -0.011562 -0.025881 0.040743 -0.207178 -0.02342 -0.205136 0.187932 0.242629 0.075408 -0.016156 0.147419 -0.076399 -0.047 0.064989 0.03075 0.239121 0.079708 -0.194579 -0.336345 -0.183548 -0.103704 0.057504 0.07962 -0.201583 -0.150602 0.093395 0.006382 0.14861 -0.176083 -0.081176 0.127711 9.8E-4 0.031465 0.015177 0.11138 0.078504 0.155338 -0.20511 -0.193811 0.008421 0.053998 0.050556 -1.09E-4 -0.144858 0.204136 0.018664 0.006242 -0.042328 0.013257 -0.057689 -0.185377 -0.042683 0.00231 0.102331 -0.04393 0.08431 0.149025 -0.108611 -0.227535 0.127947 0.066336 -0.016962 -0.233211 -0.004668 0.038295 0.165986 -0.056581 0.035562 -0.116539 -0.096811 -0.149291 0.17988 -0.026983 -0.10015 0.173354 0.072241 -0.020928 -0.060034 -0.055078 0.052772 -0.109088 0.171096 -0.097969 0.163534 0.086443 -0.139089 -0.160795 0.036377 0.070457 0.23224 0.10614 -0.154554 0.001833 0.003087 -0.071236 -0.123834 -0.218471 -0.05667 0.17412 -0.030103 0.057938 0.006937 0.154936 0.067481 -0.336699 0.02239 0.062242 0.159906 0.098408 0.146651 0.023319 0.208978 0.018992 0.066452 -0.095023 -0.126932 0.039159 0.03755 -0.118774 0.015343 -0.093328 -0.057357 0.10105 -0.147289 -0.077162 -0.05885 -0.088393 -0.008866 -0.052081 -0.156024 -0.033589 -0.049431 0.049388 -0.020286 0.16566 -0.058104 -0.19949 0.037532 0.187903 0.21339 -0.081894 0.12952 0.316553 -0.130989 -0.133786 -0.081022 -0.001435 -0.192038 0.152101 0.010238 0.010759 -0.005293 -0.025107 -0.053574 0.044204 -0.212574 -0.12897 -0.064871 -0.009118 0.116716 -0.00167 0.116093 0.040054 0.112088 -0.050982 0.07053 -0.050802 -0.181239 0.014877 -0.088514 -0.012564 -0.060478 0.068944 -0.156854 -0.017118 -0.043863 0.053153 -0.144028 -0.314294 0.050057 0.0466 -0.062077 -0.137708 -0.040284 -0.181136 0.045755 -0.295408 -0.06036 -0.077264 0.001546 0.030606 0.048082 -0.131552 0.033521 -0.154758 0.211141 -0.032271 0.070346 0.070153 5.6E-5 -0.103917 0.021602 -0.072286 -0.196763 -0.047885 -0.066605 0.061466 0.014182 -0.102407 -0.050433 0.07631 0.163563 0.11288 0.002994 0.068892 0.120531 0.034205 -0.077746 -0.079057 -0.053726 -0.15144 0.297824 0.075969 0.215093 0.110037 0.042788 0.042688 0.347732 -0.004594 -0.038287 0.062389 -0.024654 -9.47E-4 -0.015856 -9.91E-4 -0.26654 0.007568 -0.005002 0.085197 0.143328 -0.080511 -0.054334 0.0369 -0.193714 0.02697 0.15165 0.063991 -0.134937 -0.094424 -0.054858 0.069268 -0.014354 -0.096279 -0.072791 -0.131011 -0.050395 0.169333 0.22556 -0.178119 -0.188142 -0.026469 -0.067272 -0.339238 -0.233422 0.150549 0.022221 -0.054153 -0.108787 0.00523 -0.019063 -0.09532 -0.04394 0.139962 0.041526 -0.006086 -0.299662 0.072423 -0.187108 0.083649 0.032603 0.005601 0.115846 -0.08762 -0.190848 0.062614 -0.101163 -0.130532 0.059589 -0.239247 -0.024631 -0.037168 0.131448 -0.2516 0.043326 0.215629 0.047343 0.012168 -0.089103 -0.07208 0.054095 0.007539 0.057136 -0.007902 -0.167239 -0.100421 -0.036057 0.054303 -0.156068 0.127349 0.097641 0.071905 -0.115302 -0.028499 -0.078728 -0.037791 -0.03645 0.053544 0.069509 0.080661 -0.130403 -0.051101 -0.013318 0.10706 -0.010452 0.045908 -0.197519 -0.124027 -0.061089 -0.074161 -0.086472 -0.084445 -0.028269 -0.2335 0.012615 -0.118467 0.093381 0.169952 -0.080933 -0.04288 0.214193 0.127657 -0.074367 -0.103144 0.088341 0.115194 -0.08132 0.214002
treatment 0.20165 0.091481 -0.046304 0.03151 -0.002844 0.047572 -0.115387 0.155031 0.154275 0.01778 0.103807 -0.055654 0.046575 0.004215 0.180644 0.087591 -0.083308 0.04565 0.050517 0.237985 0.007667 -0.113695 0.054983 -0.061188 0.019251 -0.094592 0.048428 -0.03724 0.116726 -0.266625 0.025964 -0.02708 0.276687 -0.075793 -0.233739 -0.20866 -0.028558 0.143097 -0.020673 0.099102 0.19177 0.077056 -0.0673 0.162998 -0.004532 0.006058 0.119382 -0.063946 -0.120936 -0.351728 -0.043694 -0.070174 0.183931 0.203142 0.113284 0.088115 0.316672 0.065008 0.148104 -0.065006 0.10968 0.017474 -0.179924 0.182997 0.054174 0.008208 -0.005078 -0.164041 0.317937 -0.006218 0.03087 -0.164443 0.062843 0.065055 0.083263 0.021473 0.058865 -0.012518 0.121315 -0.044758 0.211465 0.208172 -0.348845 0.099378 0.066448 -0.112662 0.07288 0.005777 0.053655 0.090032 0.056042 -0.21423 0.270536 0.070625 0.118163 0.103396 0.201025 -0.043857 0.098943 0.031469 -0.216938 0.110151 0.025312 -0.047498 -0.022724 0.164417 0.017682 -0.123423 0.008944 -0.074629 0.106635 -0.111246 0.209967 -0.063354 -0.025319 -0.109142 -0.17575 0.087716 -0.088759 -0.050861 -0.19014 0.005123 0.006643 0.087449 -0.003929 0.099606 0.094054 -0.072799 0.024973 -0.015238 -0.002042 0.170018 0.041646 0.013262 -0.022989 -0.121854 0.147949 0.030076 0.107661 -0.06302 -0.043551 0.061088 0.033233 0.105819 -0.042898 0.133102 -0.134114 0.041368 -0.12245 0.009268 0.055829 -0.128078 -0.059139 0.001659 0.044276 0.025178 -0.113397 0.092952 0.020984 0.008472 -0.135037 -0.047053 -0.186963 0.094054 0.24039 -0.303977 0.06827 -0.079027 -0.087834 -0.019767 0.225938 0.081834 -0.045209 0.062362 -0.085101 0.011177 -0.046938 -0.299478 -0.053513 -0.33835 -0.053935 0.206583 0.311619 -0.032478 0.055032 0.044219 -0.106418 0.165141 -0.371536 0.054793 0.113047 0.24618 0.135302 -0.08852 0.198893 0.104993 0.06768 -0.013635 -0.091064 -0.033155 0.095098 -0.11438 0.061722 0.199151 -0.231357 -0.042281 0.146378 -0.100289 0.065961 0.112686 0.020216 -7.28E-4 0.015351 0.110101 -0.110406 0.04122 0.137244 -0.173483 0.055295 -0.005752 0.103464 -0.082835 -0.007504 0.040165 0.081672 -0.086586 -0.010644 0.039737 0.365848 0.085435 -0.201364 -0.083042 -0.02566 -0.027741 0.033897 0.165664 -0.028978 0.272222 0.03588 -0.345588 -0.014652 -0.278431 -0.23245 -0.042987 -0.335939 -0.03632 -0.098052 -0.212894 0.143975 -0.001419 0.076282 -0.145802 -0.064192 -0.101182 0.008291 0.165466 -0.183472 -0.024016 -0.05802 0.026916 0.164609 0.187852 -0.247956 -0.197842 -0.01587 0.011483 0.059827 0.121839 -0.061053 0.058437 0.089772 0.151232 0.096434 0.057875 -0.040581 -0.037823 0.059768 0.083347 0.021135 0.14323 -0.03308 0.040608 0.015872 0.062675 0.2175 0.133871 0.114015 0.146047 -0.044049 -0.166567 -0.151744 -0.127468 -0.191309 0.08002 -0.210817 -0.010572 -0.057422 -0.133877 0.018494 0.020347 0.053413 -0.06434 -0.009904 0.22362 -0.148949 0.029893 -0.178131 -0.007338 -0.014123 -0.002783 -0.031806 0.050697 -0.188744 -0.118508 0.062658 -0.145754 0.082805 0.136019 0.097791 -0.174984 -0.359086 -0.392259 -0.004258 -0.068449 0.147977 -0.0095 0.070388 -0.010539 -0.12322 -0.107634 0.330165 -0.096878 0.161134 -0.067252 0.08733 0.15026 0.052722 0.106735 -0.06999 0.126341 0.121661 0.00682 0.038611 -0.104258 0.044428 -0.134574 -0.029674 0.108258 -0.343185 0.076002 0.263069 -0.078964 -0.174843 0.117114 0.01941 -0.17572 0.016862 0.063378 0.021993 -0.041015 -0.163267 0.171053 7.39E-4 0.157179 -0.010819 0.120187 0.066639 -0.104599 -0.049725 0.019845 0.205128 0.353146 -0.075775 0.002846 -0.012978 0.016503 0.05706 -0.141241 -0.082882 -0.11393 -0.172416 0.080468 0.251534 0.003622 -0.018575 0.037718 -0.207409 -0.147239 -0.090197 0.152847 0.035918 -0.112112 0.133852 -0.052628 -0.170251 0.124919 -0.058723 0.129816 0.224658 0.133198
